{
  "num_round": 100,
  "interaction_constraints": [],
  "monotone_constraints": {},
  "params": {
    "minbucket": 0.01,
    "num_estimators": 20,
    "max_depth": 4
  },
  "checkpoint_interval": 10,
  "model_": {
    "inner": {
      "learner": {
        "learner_model_param": {
          "num_class": "0",
          "num_feature": "68",
          "base_score": "1.3688917E0",
          "num_target": "1",
          "boost_from_average": "0"
        },
        "feature_names": [],
        "attributes": {},
        "objective": {
          "name": "reg:squarederror",
          "reg_loss_param": {
            "scale_pos_weight": "1"
          }
        },
        "feature_types": [],
        "gradient_booster": {
          "name": "gbtree",
          "model": {
            "trees": [
              {
                "default_left": [
                  1,
                  1,
                  1,
                  1,
                  1,
                  1,
                  1,
                  1,
                  1,
                  1,
                  1,
                  1,
                  1,
                  1,
                  1,
                  0,
                  0,
                  0,
                  0,
                  0,
                  0,
                  0,
                  0,
                  0,
                  0,
                  0,
                  0,
                  0,
                  0,
                  0,
                  0
                ],
                "split_conditions": [
                  0.40041775,
                  -0.3524688,
                  0.5,
                  42.5,
                  0.5,
                  0.5,
                  61.500004,
                  17.0,
                  0.5,
                  0.12031839,
                  0.58138716,
                  13.500001,
                  0.5,
                  23.5,
                  85.5,
                  5.804866,
                  10.502608,
                  5.5091496,
                  10.515666,
                  -0.24777184,
                  0.26805496,
                  0.72261304,
                  5.8720417,
                  -0.19222294,
                  -0.37178418,
                  1.7677686,
                  0.62774384,
                  29.278814,
                  46.910393,
                  11.564866,
                  1.4524992
                ],
                "categories_nodes": [],
                "tree_param": {
                  "size_leaf_vector": "0",
                  "num_feature": "68",
                  "num_nodes": "31",
                  "num_deleted": "0"
                },
                "base_weights": [
                  -8.048962e-9,
                  -0.2829454,
                  18.874575,
                  26.347246,
                  -0.39383048,
                  3.270249,
                  89.248215,
                  30.729092,
                  20.982296,
                  -0.6824439,
                  2.8631287,
                  -1.2116107,
                  4.628838,
                  136.76956,
                  24.241648,
                  19.349552,
                  35.008694,
                  18.36383,
                  35.05222,
                  -0.8259061,
                  0.8935165,
                  2.40871,
                  19.573471,
                  -0.6407431,
                  -1.2392806,
                  5.892562,
                  2.0924795,
                  97.59605,
                  156.36797,
                  38.549553,
                  4.841664
                ],
                "parents": [
                  2147483647,
                  0,
                  0,
                  1,
                  1,
                  2,
                  2,
                  3,
                  3,
                  4,
                  4,
                  5,
                  5,
                  6,
                  6,
                  7,
                  7,
                  8,
                  8,
                  9,
                  9,
                  10,
                  10,
                  11,
                  11,
                  12,
                  12,
                  13,
                  13,
                  14,
                  14
                ],
                "categories_segments": [],
                "categories_sizes": [],
                "right_children": [
                  2,
                  4,
                  6,
                  8,
                  10,
                  12,
                  14,
                  16,
                  18,
                  20,
                  22,
                  24,
                  26,
                  28,
                  30,
                  -1,
                  -1,
                  -1,
                  -1,
                  -1,
                  -1,
                  -1,
                  -1,
                  -1,
                  -1,
                  -1,
                  -1,
                  -1,
                  -1,
                  -1,
                  -1
                ],
                "sum_hessian": [
                  29857.0,
                  29417.0,
                  440.0,
                  121.0,
                  29296.0,
                  361.0,
                  79.0,
                  64.0,
                  57.0,
                  26912.0,
                  2384.0,
                  84.0,
                  277.0,
                  45.0,
                  34.0,
                  19.0,
                  45.0,
                  50.0,
                  7.0,
                  24667.0,
                  2245.0,
                  2322.0,
                  62.0,
                  5.0,
                  79.0,
                  184.0,
                  93.0,
                  17.0,
                  28.0,
                  19.0,
                  15.0
                ],
                "id": 0,
                "left_children": [
                  1,
                  3,
                  5,
                  7,
                  9,
                  11,
                  13,
                  15,
                  17,
                  19,
                  21,
                  23,
                  25,
                  27,
                  29,
                  -1,
                  -1,
                  -1,
                  -1,
                  -1,
                  -1,
                  -1,
                  -1,
                  -1,
                  -1,
                  -1,
                  -1,
                  -1,
                  -1,
                  -1,
                  -1
                ],
                "split_indices": [
                  27,
                  11,
                  59,
                  3,
                  54,
                  54,
                  3,
                  3,
                  62,
                  27,
                  6,
                  3,
                  57,
                  3,
                  3,
                  0,
                  0,
                  0,
                  0,
                  0,
                  0,
                  0,
                  0,
                  0,
                  0,
                  0,
                  0,
                  0,
                  0,
                  0,
                  0
                ],
                "loss_changes": [
                  159461.22,
                  86878.53,
                  483984.9,
                  2223.2554,
                  27541.201,
                  2209.8286,
                  243820.44,
                  2488.0906,
                  1493.1194,
                  6085.517,
                  18063.332,
                  0.54858816,
                  878.7312,
                  20055.07,
                  9528.415,
                  0.0,
                  0.0,
                  0.0,
                  0.0,
                  0.0,
                  0.0,
                  0.0,
                  0.0,
                  0.0,
                  0.0,
                  0.0,
                  0.0,
                  0.0,
                  0.0,
                  0.0,
                  0.0
                ],
                "categories": [],
                "split_type": [
                  0,
                  0,
                  0,
                  0,
                  0,
                  0,
                  0,
                  0,
                  0,
                  0,
                  0,
                  0,
                  0,
                  0,
                  0,
                  0,
                  0,
                  0,
                  0,
                  0,
                  0,
                  0,
                  0,
                  0,
                  0,
                  0,
                  0,
                  0,
                  0,
                  0,
                  0
                ]
              },
              {
                "default_left": [
                  1,
                  1,
                  1,
                  1,
                  1,
                  1,
                  1,
                  1,
                  1,
                  1,
                  1,
                  1,
                  1,
                  1,
                  1,
                  0,
                  0,
                  0,
                  0,
                  0,
                  0,
                  0,
                  0,
                  0,
                  0,
                  0,
                  0,
                  0,
                  0,
                  0,
                  0
                ],
                "split_conditions": [
                  0.38578597,
                  -0.3524688,
                  0.5,
                  50.5,
                  0.58138716,
                  9.5,
                  55.500004,
                  0.5,
                  0.5,
                  0.36975276,
                  20.5,
                  3.5,
                  0.26878172,
                  23.5,
                  85.5,
                  7.146835,
                  4.415148,
                  3.4935198,
                  6.929685,
                  -0.106283374,
                  4.4459,
                  2.2871263,
                  4.5291376,
                  1.0860909,
                  -0.22663015,
                  5.461023,
                  0.85841936,
                  20.98315,
                  35.423286,
                  9.16201,
                  1.0439839
                ],
                "categories_nodes": [],
                "tree_param": {
                  "size_leaf_vector": "0",
                  "num_feature": "68",
                  "num_nodes": "31",
                  "num_deleted": "0"
                },
                "base_weights": [
                  0.0043534585,
                  -0.22186352,
                  12.522681,
                  18.708092,
                  -0.30092517,
                  3.436617,
                  63.588837,
                  21.242811,
                  13.731935,
                  -0.33138287,
                  13.794638,
                  1.3952982,
                  6.085295,
                  100.67458,
                  19.949997,
                  23.822783,
                  14.717158,
                  11.645065,
                  23.09895,
                  -0.3542779,
                  14.819666,
                  7.623754,
                  15.097124,
                  3.620303,
                  -0.7554338,
                  18.20341,
                  2.8613977,
                  69.94383,
                  118.077614,
                  30.540031,
                  3.4799461
                ],
                "parents": [
                  2147483647,
                  0,
                  0,
                  1,
                  1,
                  2,
                  2,
                  3,
                  3,
                  4,
                  4,
                  5,
                  5,
                  6,
                  6,
                  7,
                  7,
                  8,
                  8,
                  9,
                  9,
                  10,
                  10,
                  11,
                  11,
                  12,
                  12,
                  13,
                  13,
                  14,
                  14
                ],
                "categories_segments": [],
                "categories_sizes": [],
                "right_children": [
                  2,
                  4,
                  6,
                  8,
                  10,
                  12,
                  14,
                  16,
                  18,
                  20,
                  22,
                  24,
                  26,
                  28,
                  30,
                  -1,
                  -1,
                  -1,
                  -1,
                  -1,
                  -1,
                  -1,
                  -1,
                  -1,
                  -1,
                  -1,
                  -1,
                  -1,
                  -1,
                  -1,
                  -1
                ],
                "sum_hessian": [
                  29857.0,
                  29328.0,
                  529.0,
                  121.0,
                  29207.0,
                  450.0,
                  79.0,
                  78.0,
                  43.0,
                  29145.0,
                  62.0,
                  255.0,
                  195.0,
                  42.0,
                  37.0,
                  54.0,
                  24.0,
                  37.0,
                  6.0,
                  29102.0,
                  43.0,
                  12.0,
                  50.0,
                  125.0,
                  130.0,
                  40.0,
                  155.0,
                  17.0,
                  25.0,
                  22.0,
                  15.0
                ],
                "id": 1,
                "left_children": [
                  1,
                  3,
                  5,
                  7,
                  9,
                  11,
                  13,
                  15,
                  17,
                  19,
                  21,
                  23,
                  25,
                  27,
                  29,
                  -1,
                  -1,
                  -1,
                  -1,
                  -1,
                  -1,
                  -1,
                  -1,
                  -1,
                  -1,
                  -1,
                  -1,
                  -1,
                  -1,
                  -1,
                  -1
                ],
                "split_indices": [
                  27,
                  11,
                  59,
                  3,
                  6,
                  1,
                  3,
                  0,
                  62,
                  39,
                  3,
                  1,
                  4,
                  3,
                  3,
                  0,
                  0,
                  0,
                  0,
                  0,
                  0,
                  0,
                  0,
                  0,
                  0,
                  0,
                  0,
                  0,
                  0,
                  0,
                  0
                ],
                "loss_changes": [
                  84556.41,
                  43900.395,
                  245696.36,
                  1247.1006,
                  12544.095,
                  2429.9744,
                  127461.85,
                  979.44073,
                  591.1117,
                  10115.533,
                  391.26553,
                  1227.7946,
                  7605.1543,
                  14737.951,
                  6521.6226,
                  0.0,
                  0.0,
                  0.0,
                  0.0,
                  0.0,
                  0.0,
                  0.0,
                  0.0,
                  0.0,
                  0.0,
                  0.0,
                  0.0,
                  0.0,
                  0.0,
                  0.0,
                  0.0
                ],
                "categories": [],
                "split_type": [
                  0,
                  0,
                  0,
                  0,
                  0,
                  0,
                  0,
                  0,
                  0,
                  0,
                  0,
                  0,
                  0,
                  0,
                  0,
                  0,
                  0,
                  0,
                  0,
                  0,
                  0,
                  0,
                  0,
                  0,
                  0,
                  0,
                  0,
                  0,
                  0,
                  0,
                  0
                ]
              },
              {
                "default_left": [
                  1,
                  1,
                  1,
                  1,
                  1,
                  1,
                  1,
                  1,
                  1,
                  1,
                  1,
                  1,
                  1,
                  1,
                  1,
                  0,
                  0,
                  0,
                  0,
                  0,
                  0,
                  0,
                  0,
                  0,
                  0,
                  0,
                  0,
                  0,
                  0,
                  0,
                  0
                ],
                "split_conditions": [
                  0.38578597,
                  -0.3524688,
                  0.5,
                  57.000004,
                  0.5,
                  0.5,
                  54.5,
                  15.500001,
                  60.500004,
                  0.4034023,
                  -0.07443364,
                  0.26878172,
                  9.5,
                  7.5000005,
                  65.5,
                  2.2676756,
                  4.9312778,
                  -0.9836013,
                  3.116927,
                  -0.12943695,
                  0.6474141,
                  1.9297811,
                  0.24971186,
                  -1.9036784,
                  0.30412757,
                  0.29182398,
                  3.4990904,
                  35.9844,
                  17.964254,
                  10.338234,
                  2.7795665
                ],
                "categories_nodes": [],
                "tree_param": {
                  "size_leaf_vector": "0",
                  "num_feature": "68",
                  "num_nodes": "31",
                  "num_deleted": "0"
                },
                "base_weights": [
                  0.006628828,
                  -0.15417445,
                  8.905106,
                  13.27587,
                  -0.21026562,
                  2.4215496,
                  45.344837,
                  14.726836,
                  9.087287,
                  -0.3718917,
                  1.6754398,
                  0.38771957,
                  5.089615,
                  72.74794,
                  14.671111,
                  7.5589185,
                  16.437592,
                  -3.2786708,
                  10.389756,
                  -0.43145648,
                  2.158047,
                  6.4326034,
                  0.83237284,
                  -6.3455944,
                  1.0137585,
                  0.9727466,
                  11.663634,
                  119.948,
                  59.880848,
                  34.460777,
                  9.265222
                ],
                "parents": [
                  2147483647,
                  0,
                  0,
                  1,
                  1,
                  2,
                  2,
                  3,
                  3,
                  4,
                  4,
                  5,
                  5,
                  6,
                  6,
                  7,
                  7,
                  8,
                  8,
                  9,
                  9,
                  10,
                  10,
                  11,
                  11,
                  12,
                  12,
                  13,
                  13,
                  14,
                  14
                ],
                "categories_segments": [],
                "categories_sizes": [],
                "right_children": [
                  2,
                  4,
                  6,
                  8,
                  10,
                  12,
                  14,
                  16,
                  18,
                  20,
                  22,
                  24,
                  26,
                  28,
                  30,
                  -1,
                  -1,
                  -1,
                  -1,
                  -1,
                  -1,
                  -1,
                  -1,
                  -1,
                  -1,
                  -1,
                  -1,
                  -1,
                  -1,
                  -1,
                  -1
                ],
                "sum_hessian": [
                  29857.0,
                  29328.0,
                  529.0,
                  121.0,
                  29207.0,
                  450.0,
                  79.0,
                  88.0,
                  33.0,
                  26902.0,
                  2305.0,
                  256.0,
                  194.0,
                  41.0,
                  38.0,
                  18.0,
                  70.0,
                  3.0,
                  30.0,
                  26284.0,
                  618.0,
                  346.0,
                  1959.0,
                  21.0,
                  235.0,
                  120.0,
                  74.0,
                  7.0,
                  34.0,
                  7.0,
                  31.0
                ],
                "id": 2,
                "left_children": [
                  1,
                  3,
                  5,
                  7,
                  9,
                  11,
                  13,
                  15,
                  17,
                  19,
                  21,
                  23,
                  25,
                  27,
                  29,
                  -1,
                  -1,
                  -1,
                  -1,
                  -1,
                  -1,
                  -1,
                  -1,
                  -1,
                  -1,
                  -1,
                  -1,
                  -1,
                  -1,
                  -1,
                  -1
                ],
                "split_indices": [
                  27,
                  11,
                  59,
                  3,
                  54,
                  60,
                  3,
                  3,
                  3,
                  50,
                  20,
                  4,
                  1,
                  3,
                  3,
                  0,
                  0,
                  0,
                  0,
                  0,
                  0,
                  0,
                  0,
                  0,
                  0,
                  0,
                  0,
                  0,
                  0,
                  0,
                  0
                ],
                "loss_changes": [
                  42725.31,
                  22096.535,
                  125107.484,
                  607.6269,
                  8902.613,
                  2445.329,
                  66177.13,
                  967.1165,
                  581.6781,
                  4055.085,
                  9243.105,
                  1089.7693,
                  5266.207,
                  18325.174,
                  3852.9626,
                  0.0,
                  0.0,
                  0.0,
                  0.0,
                  0.0,
                  0.0,
                  0.0,
                  0.0,
                  0.0,
                  0.0,
                  0.0,
                  0.0,
                  0.0,
                  0.0,
                  0.0,
                  0.0
                ],
                "categories": [],
                "split_type": [
                  0,
                  0,
                  0,
                  0,
                  0,
                  0,
                  0,
                  0,
                  0,
                  0,
                  0,
                  0,
                  0,
                  0,
                  0,
                  0,
                  0,
                  0,
                  0,
                  0,
                  0,
                  0,
                  0,
                  0,
                  0,
                  0,
                  0,
                  0,
                  0,
                  0,
                  0
                ]
              },
              {
                "default_left": [
                  1,
                  1,
                  1,
                  1,
                  1,
                  1,
                  1,
                  1,
                  1,
                  1,
                  1,
                  1,
                  1,
                  1,
                  1,
                  0,
                  0,
                  0,
                  0,
                  0,
                  0,
                  0,
                  0,
                  0,
                  0,
                  0,
                  0,
                  0,
                  0,
                  0,
                  0
                ],
                "split_conditions": [
                  0.38578597,
                  -0.3524688,
                  0.5,
                  0.5,
                  0.58138716,
                  0.26878172,
                  62.500004,
                  0.5,
                  41.5,
                  0.36975276,
                  49.5,
                  9.5,
                  57.5,
                  7.5000005,
                  87.0,
                  3.5956972,
                  1.9477725,
                  2.0625966,
                  0.12420305,
                  -0.055109166,
                  3.0692317,
                  2.1904526,
                  3.514263,
                  -0.18867226,
                  3.6687324,
                  0.5822148,
                  -0.051598776,
                  26.538496,
                  12.301737,
                  4.0122256,
                  -0.18058357
                ],
                "categories_nodes": [],
                "tree_param": {
                  "size_leaf_vector": "0",
                  "num_feature": "68",
                  "num_nodes": "31",
                  "num_deleted": "0"
                },
                "base_weights": [
                  0.007362683,
                  -0.10751191,
                  6.3642488,
                  9.369602,
                  -0.14709355,
                  1.6999435,
                  32.579716,
                  10.163884,
                  3.0261354,
                  -0.1679814,
                  9.518692,
                  5.221645,
                  0.8196864,
                  49.955845,
                  7.601545,
                  11.985657,
                  6.4925747,
                  6.875322,
                  0.41401014,
                  -0.18369721,
                  10.230772,
                  7.3015084,
                  11.71421,
                  -0.6289075,
                  12.229108,
                  1.9407159,
                  -0.17199591,
                  88.46165,
                  41.005787,
                  13.374085,
                  -0.6019452
                ],
                "parents": [
                  2147483647,
                  0,
                  0,
                  1,
                  1,
                  2,
                  2,
                  3,
                  3,
                  4,
                  4,
                  5,
                  5,
                  6,
                  6,
                  7,
                  7,
                  8,
                  8,
                  9,
                  9,
                  10,
                  10,
                  11,
                  11,
                  12,
                  12,
                  13,
                  13,
                  14,
                  14
                ],
                "categories_segments": [],
                "categories_sizes": [],
                "right_children": [
                  2,
                  4,
                  6,
                  8,
                  10,
                  12,
                  14,
                  16,
                  18,
                  20,
                  22,
                  24,
                  26,
                  28,
                  30,
                  -1,
                  -1,
                  -1,
                  -1,
                  -1,
                  -1,
                  -1,
                  -1,
                  -1,
                  -1,
                  -1,
                  -1,
                  -1,
                  -1,
                  -1,
                  -1
                ],
                "sum_hessian": [
                  29857.0,
                  29328.0,
                  529.0,
                  121.0,
                  29207.0,
                  450.0,
                  79.0,
                  107.0,
                  14.0,
                  29145.0,
                  62.0,
                  89.0,
                  361.0,
                  46.0,
                  33.0,
                  70.0,
                  37.0,
                  5.0,
                  9.0,
                  29102.0,
                  43.0,
                  33.0,
                  29.0,
                  49.0,
                  40.0,
                  169.0,
                  192.0,
                  7.0,
                  39.0,
                  19.0,
                  14.0
                ],
                "id": 3,
                "left_children": [
                  1,
                  3,
                  5,
                  7,
                  9,
                  11,
                  13,
                  15,
                  17,
                  19,
                  21,
                  23,
                  25,
                  27,
                  29,
                  -1,
                  -1,
                  -1,
                  -1,
                  -1,
                  -1,
                  -1,
                  -1,
                  -1,
                  -1,
                  -1,
                  -1,
                  -1,
                  -1,
                  -1,
                  -1
                ],
                "split_indices": [
                  27,
                  11,
                  59,
                  61,
                  6,
                  4,
                  3,
                  0,
                  3,
                  39,
                  3,
                  1,
                  3,
                  3,
                  3,
                  0,
                  0,
                  0,
                  0,
                  0,
                  0,
                  0,
                  0,
                  0,
                  0,
                  0,
                  0,
                  0,
                  0,
                  0,
                  0
                ],
                "loss_changes": [
                  21804.33,
                  11003.264,
                  64751.395,
                  583.9395,
                  5898.6216,
                  1393.8212,
                  34342.17,
                  644.51776,
                  147.9719,
                  4765.059,
                  221.14412,
                  3697.4688,
                  402.77106,
                  12570.13,
                  1618.1198,
                  0.0,
                  0.0,
                  0.0,
                  0.0,
                  0.0,
                  0.0,
                  0.0,
                  0.0,
                  0.0,
                  0.0,
                  0.0,
                  0.0,
                  0.0,
                  0.0,
                  0.0,
                  0.0
                ],
                "categories": [],
                "split_type": [
                  0,
                  0,
                  0,
                  0,
                  0,
                  0,
                  0,
                  0,
                  0,
                  0,
                  0,
                  0,
                  0,
                  0,
                  0,
                  0,
                  0,
                  0,
                  0,
                  0,
                  0,
                  0,
                  0,
                  0,
                  0,
                  0,
                  0,
                  0,
                  0,
                  0,
                  0
                ]
              },
              {
                "default_left": [
                  1,
                  1,
                  1,
                  1,
                  1,
                  1,
                  1,
                  1,
                  1,
                  1,
                  1,
                  1,
                  1,
                  1,
                  1,
                  0,
                  0,
                  0,
                  0,
                  0,
                  0,
                  0,
                  0,
                  0,
                  0,
                  0,
                  0,
                  0,
                  0,
                  0,
                  0
                ],
                "split_conditions": [
                  0.5,
                  0.12031839,
                  0.5,
                  0.4034023,
                  0.5,
                  -0.0074080816,
                  0.41644323,
                  -0.24521379,
                  0.5,
                  0.12204626,
                  207.5,
                  -0.022315793,
                  0.41538695,
                  52.0,
                  42.5,
                  0.045699354,
                  -0.123123206,
                  1.1618289,
                  -0.38834408,
                  1.4378197,
                  0.2708328,
                  -0.27524832,
                  0.17807022,
                  0.28618973,
                  2.0931547,
                  0.092328146,
                  2.4260654,
                  11.652351,
                  2.2938235,
                  0.055530336,
                  0.9155923
                ],
                "categories_nodes": [],
                "tree_param": {
                  "size_leaf_vector": "0",
                  "num_feature": "68",
                  "num_nodes": "31",
                  "num_deleted": "0"
                },
                "base_weights": [
                  0.0072682593,
                  -0.20795862,
                  2.0374825,
                  -0.30678877,
                  0.8384576,
                  1.3937956,
                  8.8465805,
                  -0.3549959,
                  1.5666989,
                  1.9464575,
                  -0.8466087,
                  4.4137673,
                  0.5332274,
                  23.339201,
                  1.892675,
                  0.15233117,
                  -0.41041067,
                  3.8727627,
                  -1.2944802,
                  4.7927322,
                  0.90277594,
                  -0.91749436,
                  0.5935674,
                  0.9539657,
                  6.977182,
                  0.30776048,
                  8.0868845,
                  38.84117,
                  7.646078,
                  0.1851011,
                  3.0519743
                ],
                "parents": [
                  2147483647,
                  0,
                  0,
                  1,
                  1,
                  2,
                  2,
                  3,
                  3,
                  4,
                  4,
                  5,
                  5,
                  6,
                  6,
                  7,
                  7,
                  8,
                  8,
                  9,
                  9,
                  10,
                  10,
                  11,
                  11,
                  12,
                  12,
                  13,
                  13,
                  14,
                  14
                ],
                "categories_segments": [],
                "categories_sizes": [],
                "right_children": [
                  2,
                  4,
                  6,
                  8,
                  10,
                  12,
                  14,
                  16,
                  18,
                  20,
                  22,
                  24,
                  26,
                  28,
                  30,
                  -1,
                  -1,
                  -1,
                  -1,
                  -1,
                  -1,
                  -1,
                  -1,
                  -1,
                  -1,
                  -1,
                  -1,
                  -1,
                  -1,
                  -1,
                  -1
                ],
                "sum_hessian": [
                  29857.0,
                  26996.0,
                  2861.0,
                  24667.0,
                  2329.0,
                  2615.0,
                  246.0,
                  24049.0,
                  618.0,
                  1405.0,
                  924.0,
                  579.0,
                  2036.0,
                  79.0,
                  167.0,
                  2368.0,
                  21681.0,
                  342.0,
                  276.0,
                  376.0,
                  1029.0,
                  881.0,
                  43.0,
                  247.0,
                  332.0,
                  1978.0,
                  58.0,
                  39.0,
                  40.0,
                  68.0,
                  99.0
                ],
                "id": 4,
                "left_children": [
                  1,
                  3,
                  5,
                  7,
                  9,
                  11,
                  13,
                  15,
                  17,
                  19,
                  21,
                  23,
                  25,
                  27,
                  29,
                  -1,
                  -1,
                  -1,
                  -1,
                  -1,
                  -1,
                  -1,
                  -1,
                  -1,
                  -1,
                  -1,
                  -1,
                  -1,
                  -1,
                  -1,
                  -1
                ],
                "split_indices": [
                  54,
                  27,
                  59,
                  50,
                  55,
                  51,
                  4,
                  6,
                  55,
                  4,
                  3,
                  51,
                  15,
                  3,
                  3,
                  0,
                  0,
                  0,
                  0,
                  0,
                  0,
                  0,
                  0,
                  0,
                  0,
                  0,
                  0,
                  0,
                  0,
                  0,
                  0
                ],
                "loss_changes": [
                  13047.076,
                  2792.2183,
                  12531.606,
                  2228.4592,
                  4351.882,
                  6796.3477,
                  24848.562,
                  676.19,
                  4089.2134,
                  4172.343,
                  94.975815,
                  5137.3096,
                  3466.7253,
                  19164.96,
                  332.00607,
                  0.0,
                  0.0,
                  0.0,
                  0.0,
                  0.0,
                  0.0,
                  0.0,
                  0.0,
                  0.0,
                  0.0,
                  0.0,
                  0.0,
                  0.0,
                  0.0,
                  0.0,
                  0.0
                ],
                "categories": [],
                "split_type": [
                  0,
                  0,
                  0,
                  0,
                  0,
                  0,
                  0,
                  0,
                  0,
                  0,
                  0,
                  0,
                  0,
                  0,
                  0,
                  0,
                  0,
                  0,
                  0,
                  0,
                  0,
                  0,
                  0,
                  0,
                  0,
                  0,
                  0,
                  0,
                  0,
                  0,
                  0
                ]
              },
              {
                "default_left": [
                  1,
                  1,
                  1,
                  1,
                  1,
                  1,
                  1,
                  1,
                  1,
                  1,
                  1,
                  1,
                  1,
                  1,
                  1,
                  0,
                  0,
                  0,
                  0,
                  0,
                  0,
                  0,
                  0,
                  0,
                  0,
                  0,
                  0,
                  0,
                  0,
                  0,
                  0
                ],
                "split_conditions": [
                  0.38578597,
                  0.5,
                  0.5,
                  -0.31355655,
                  0.36975276,
                  0.5,
                  7.5000005,
                  0.5,
                  0.36975276,
                  -0.1616711,
                  115.500015,
                  0.26878172,
                  99.0,
                  1.5000001,
                  23.5,
                  -0.16527712,
                  2.4331539,
                  -0.101179205,
                  -2.6646838,
                  1.0598327,
                  0.051122982,
                  11.690907,
                  -1.5636383,
                  -2.435565,
                  0.13623174,
                  0.16991335,
                  2.8353078,
                  3.138779,
                  20.448473,
                  -12.9952345,
                  6.4622674
                ],
                "categories_nodes": [],
                "tree_param": {
                  "size_leaf_vector": "0",
                  "num_feature": "68",
                  "num_nodes": "31",
                  "num_deleted": "0"
                },
                "base_weights": [
                  0.0058287177,
                  -0.057115283,
                  3.4889963,
                  -0.32078236,
                  0.3064206,
                  1.1712341,
                  16.511768,
                  6.528551,
                  -0.35192618,
                  0.26734945,
                  30.35984,
                  -0.2779733,
                  3.075209,
                  55.044655,
                  12.062797,
                  -0.5509237,
                  8.110513,
                  -0.337264,
                  -8.882279,
                  3.5327756,
                  0.17040993,
                  38.96969,
                  -5.2121277,
                  -8.118549,
                  0.45410576,
                  0.5663778,
                  9.451026,
                  10.462596,
                  68.161575,
                  -43.317448,
                  21.54089
                ],
                "parents": [
                  2147483647,
                  0,
                  0,
                  1,
                  1,
                  2,
                  2,
                  3,
                  3,
                  4,
                  4,
                  5,
                  5,
                  6,
                  6,
                  7,
                  7,
                  8,
                  8,
                  9,
                  9,
                  10,
                  10,
                  11,
                  11,
                  12,
                  12,
                  13,
                  13,
                  14,
                  14
                ],
                "categories_segments": [],
                "categories_sizes": [],
                "right_children": [
                  2,
                  4,
                  6,
                  8,
                  10,
                  12,
                  14,
                  16,
                  18,
                  20,
                  22,
                  24,
                  26,
                  28,
                  30,
                  -1,
                  -1,
                  -1,
                  -1,
                  -1,
                  -1,
                  -1,
                  -1,
                  -1,
                  -1,
                  -1,
                  -1,
                  -1,
                  -1,
                  -1,
                  -1
                ],
                "sum_hessian": [
                  29857.0,
                  29328.0,
                  529.0,
                  16999.0,
                  12329.0,
                  450.0,
                  79.0,
                  76.0,
                  16923.0,
                  12314.0,
                  15.0,
                  256.0,
                  194.0,
                  7.0,
                  72.0,
                  14.0,
                  62.0,
                  16895.0,
                  28.0,
                  354.0,
                  11960.0,
                  12.0,
                  3.0,
                  21.0,
                  235.0,
                  140.0,
                  54.0,
                  2.0,
                  5.0,
                  10.0,
                  62.0
                ],
                "id": 5,
                "left_children": [
                  1,
                  3,
                  5,
                  7,
                  9,
                  11,
                  13,
                  15,
                  17,
                  19,
                  21,
                  23,
                  25,
                  27,
                  29,
                  -1,
                  -1,
                  -1,
                  -1,
                  -1,
                  -1,
                  -1,
                  -1,
                  -1,
                  -1,
                  -1,
                  -1,
                  -1,
                  -1,
                  -1,
                  -1
                ],
                "split_indices": [
                  27,
                  60,
                  59,
                  6,
                  39,
                  60,
                  3,
                  54,
                  39,
                  22,
                  3,
                  4,
                  3,
                  3,
                  3,
                  0,
                  0,
                  0,
                  0,
                  0,
                  0,
                  0,
                  0,
                  0,
                  0,
                  0,
                  0,
                  0,
                  0,
                  0,
                  0
                ],
                "loss_changes": [
                  6546.4014,
                  2811.3545,
                  15978.014,
                  3628.6418,
                  14470.034,
                  1245.2784,
                  13050.544,
                  866.8264,
                  2113.7495,
                  3897.697,
                  5103.423,
                  1478.8466,
                  3113.8374,
                  3965.088,
                  39250.734,
                  0.0,
                  0.0,
                  0.0,
                  0.0,
                  0.0,
                  0.0,
                  0.0,
                  0.0,
                  0.0,
                  0.0,
                  0.0,
                  0.0,
                  0.0,
                  0.0,
                  0.0,
                  0.0
                ],
                "categories": [],
                "split_type": [
                  0,
                  0,
                  0,
                  0,
                  0,
                  0,
                  0,
                  0,
                  0,
                  0,
                  0,
                  0,
                  0,
                  0,
                  0,
                  0,
                  0,
                  0,
                  0,
                  0,
                  0,
                  0,
                  0,
                  0,
                  0,
                  0,
                  0,
                  0,
                  0,
                  0,
                  0
                ]
              },
              {
                "default_left": [
                  1,
                  1,
                  1,
                  1,
                  1,
                  1,
                  1,
                  1,
                  1,
                  1,
                  1,
                  1,
                  1,
                  1,
                  1,
                  0,
                  0,
                  0,
                  0,
                  0,
                  0,
                  0,
                  0,
                  0,
                  0,
                  0,
                  0,
                  0,
                  0,
                  0,
                  0
                ],
                "split_conditions": [
                  0.5,
                  -0.05908535,
                  0.5,
                  0.5,
                  0.13074373,
                  -0.0074080816,
                  0.41644323,
                  0.04869085,
                  0.030557357,
                  -0.027097551,
                  0.5,
                  -0.022315793,
                  -0.1377466,
                  46.5,
                  0.454044,
                  -0.01768404,
                  0.5180079,
                  -0.15654528,
                  0.031220635,
                  -0.12629908,
                  -0.045788456,
                  -0.42294535,
                  -0.31285727,
                  0.19627391,
                  1.4107759,
                  1.0275477,
                  -0.010021314,
                  8.099001,
                  -0.020676315,
                  0.818974,
                  0.06587617
                ],
                "categories_nodes": [],
                "tree_param": {
                  "size_leaf_vector": "0",
                  "num_feature": "68",
                  "num_nodes": "31",
                  "num_deleted": "0"
                },
                "base_weights": [
                  0.0050346293,
                  -0.1200831,
                  1.1852577,
                  0.2113576,
                  -0.26256412,
                  0.8448194,
                  4.786072,
                  0.6593494,
                  -0.32018435,
                  -0.24023265,
                  -1.2581072,
                  2.9796798,
                  0.23654072,
                  11.771414,
                  1.43123,
                  -0.0589468,
                  1.7266929,
                  -0.52181756,
                  0.10406878,
                  -0.4209969,
                  -0.15262818,
                  -1.4098178,
                  -1.0428575,
                  0.65424633,
                  4.702586,
                  3.425159,
                  -0.03340438,
                  26.99667,
                  -0.068921044,
                  2.7299132,
                  0.21958722
                ],
                "parents": [
                  2147483647,
                  0,
                  0,
                  1,
                  1,
                  2,
                  2,
                  3,
                  3,
                  4,
                  4,
                  5,
                  5,
                  6,
                  6,
                  7,
                  7,
                  8,
                  8,
                  9,
                  9,
                  10,
                  10,
                  11,
                  11,
                  12,
                  12,
                  13,
                  13,
                  14,
                  14
                ],
                "categories_segments": [],
                "categories_sizes": [],
                "right_children": [
                  2,
                  4,
                  6,
                  8,
                  10,
                  12,
                  14,
                  16,
                  18,
                  20,
                  22,
                  24,
                  26,
                  28,
                  30,
                  -1,
                  -1,
                  -1,
                  -1,
                  -1,
                  -1,
                  -1,
                  -1,
                  -1,
                  -1,
                  -1,
                  -1,
                  -1,
                  -1,
                  -1,
                  -1
                ],
                "sum_hessian": [
                  29857.0,
                  26996.0,
                  2861.0,
                  8116.0,
                  18880.0,
                  2615.0,
                  246.0,
                  4404.0,
                  3712.0,
                  18467.0,
                  413.0,
                  579.0,
                  2036.0,
                  79.0,
                  167.0,
                  2633.0,
                  1771.0,
                  2516.0,
                  1196.0,
                  6027.0,
                  12440.0,
                  239.0,
                  174.0,
                  247.0,
                  332.0,
                  158.0,
                  1878.0,
                  34.0,
                  45.0,
                  80.0,
                  87.0
                ],
                "id": 6,
                "left_children": [
                  1,
                  3,
                  5,
                  7,
                  9,
                  11,
                  13,
                  15,
                  17,
                  19,
                  21,
                  23,
                  25,
                  27,
                  29,
                  -1,
                  -1,
                  -1,
                  -1,
                  -1,
                  -1,
                  -1,
                  -1,
                  -1,
                  -1,
                  -1,
                  -1,
                  -1,
                  -1,
                  -1,
                  -1
                ],
                "split_indices": [
                  54,
                  9,
                  59,
                  55,
                  27,
                  51,
                  4,
                  27,
                  7,
                  34,
                  55,
                  51,
                  22,
                  3,
                  4,
                  0,
                  0,
                  0,
                  0,
                  0,
                  0,
                  0,
                  0,
                  0,
                  0,
                  0,
                  0,
                  0,
                  0,
                  0,
                  0
                ],
                "loss_changes": [
                  4409.178,
                  1274.9619,
                  3504.3528,
                  1933.0833,
                  419.4588,
                  3396.407,
                  5771.5273,
                  3377.2778,
                  317.6774,
                  292.3905,
                  12.049204,
                  2320.6956,
                  1753.4661,
                  14423.632,
                  263.75528,
                  0.0,
                  0.0,
                  0.0,
                  0.0,
                  0.0,
                  0.0,
                  0.0,
                  0.0,
                  0.0,
                  0.0,
                  0.0,
                  0.0,
                  0.0,
                  0.0,
                  0.0,
                  0.0
                ],
                "categories": [],
                "split_type": [
                  0,
                  0,
                  0,
                  0,
                  0,
                  0,
                  0,
                  0,
                  0,
                  0,
                  0,
                  0,
                  0,
                  0,
                  0,
                  0,
                  0,
                  0,
                  0,
                  0,
                  0,
                  0,
                  0,
                  0,
                  0,
                  0,
                  0,
                  0,
                  0,
                  0,
                  0
                ]
              },
              {
                "default_left": [
                  1,
                  1,
                  1,
                  1,
                  1,
                  1,
                  1,
                  1,
                  1,
                  1,
                  1,
                  1,
                  1,
                  1,
                  1,
                  0,
                  0,
                  0,
                  0,
                  0,
                  0,
                  0,
                  0,
                  0,
                  0,
                  0,
                  0,
                  0,
                  0,
                  0,
                  0
                ],
                "split_conditions": [
                  0.5,
                  -0.0882324,
                  0.008305414,
                  0.5,
                  0.5,
                  0.5,
                  0.58138716,
                  0.10564951,
                  0.5712988,
                  0.13115957,
                  0.15269256,
                  0.5,
                  65.5,
                  0.03832331,
                  0.5,
                  0.7254399,
                  0.07036487,
                  -0.13192542,
                  0.11556894,
                  -0.08042991,
                  -0.3070225,
                  -0.030306177,
                  0.5628707,
                  -0.026994493,
                  0.6188829,
                  2.706885,
                  -0.2922216,
                  -0.5195442,
                  -0.030176468,
                  0.62961423,
                  1.8324747
                ],
                "categories_nodes": [],
                "tree_param": {
                  "size_leaf_vector": "0",
                  "num_feature": "68",
                  "num_nodes": "31",
                  "num_deleted": "0"
                },
                "base_weights": [
                  0.003894494,
                  -0.084077895,
                  0.83372915,
                  0.29714045,
                  -0.1754488,
                  1.5549213,
                  -0.3026389,
                  0.79074115,
                  -0.365556,
                  -0.3081832,
                  0.0027436565,
                  1.1933321,
                  5.1430163,
                  -0.5248027,
                  3.4048953,
                  2.418133,
                  0.23454955,
                  -0.4397514,
                  0.3852298,
                  -0.2680997,
                  -1.0234083,
                  -0.10102059,
                  1.8762356,
                  -0.08998164,
                  2.062943,
                  9.02295,
                  -0.974072,
                  -1.7318139,
                  -0.100588225,
                  2.098714,
                  6.1082487
                ],
                "parents": [
                  2147483647,
                  0,
                  0,
                  1,
                  1,
                  2,
                  2,
                  3,
                  3,
                  4,
                  4,
                  5,
                  5,
                  6,
                  6,
                  7,
                  7,
                  8,
                  8,
                  9,
                  9,
                  10,
                  10,
                  11,
                  11,
                  12,
                  12,
                  13,
                  13,
                  14,
                  14
                ],
                "categories_segments": [],
                "categories_sizes": [],
                "right_children": [
                  2,
                  4,
                  6,
                  8,
                  10,
                  12,
                  14,
                  16,
                  18,
                  20,
                  22,
                  24,
                  26,
                  28,
                  30,
                  -1,
                  -1,
                  -1,
                  -1,
                  -1,
                  -1,
                  -1,
                  -1,
                  -1,
                  -1,
                  -1,
                  -1,
                  -1,
                  -1,
                  -1,
                  -1
                ],
                "sum_hessian": [
                  29857.0,
                  26996.0,
                  2861.0,
                  5219.0,
                  21777.0,
                  1750.0,
                  1111.0,
                  2991.0,
                  2228.0,
                  12480.0,
                  9297.0,
                  1591.0,
                  159.0,
                  1049.0,
                  62.0,
                  761.0,
                  2230.0,
                  2028.0,
                  200.0,
                  11819.0,
                  661.0,
                  8810.0,
                  487.0,
                  643.0,
                  948.0,
                  97.0,
                  62.0,
                  272.0,
                  777.0,
                  43.0,
                  19.0
                ],
                "id": 7,
                "left_children": [
                  1,
                  3,
                  5,
                  7,
                  9,
                  11,
                  13,
                  15,
                  17,
                  19,
                  21,
                  23,
                  25,
                  27,
                  29,
                  -1,
                  -1,
                  -1,
                  -1,
                  -1,
                  -1,
                  -1,
                  -1,
                  -1,
                  -1,
                  -1,
                  -1,
                  -1,
                  -1,
                  -1,
                  -1
                ],
                "split_indices": [
                  54,
                  32,
                  6,
                  55,
                  60,
                  59,
                  6,
                  4,
                  5,
                  27,
                  27,
                  60,
                  3,
                  22,
                  0,
                  0,
                  0,
                  0,
                  0,
                  0,
                  0,
                  0,
                  0,
                  0,
                  0,
                  0,
                  0,
                  0,
                  0,
                  0,
                  0
                ],
                "loss_changes": [
                  2179.7798,
                  940.4188,
                  2345.9932,
                  1707.7898,
                  515.1,
                  2265.6392,
                  917.719,
                  2707.6167,
                  124.335464,
                  357.5401,
                  1807.7345,
                  1776.8314,
                  3806.213,
                  537.459,
                  209.63788,
                  0.0,
                  0.0,
                  0.0,
                  0.0,
                  0.0,
                  0.0,
                  0.0,
                  0.0,
                  0.0,
                  0.0,
                  0.0,
                  0.0,
                  0.0,
                  0.0,
                  0.0,
                  0.0
                ],
                "categories": [],
                "split_type": [
                  0,
                  0,
                  0,
                  0,
                  0,
                  0,
                  0,
                  0,
                  0,
                  0,
                  0,
                  0,
                  0,
                  0,
                  0,
                  0,
                  0,
                  0,
                  0,
                  0,
                  0,
                  0,
                  0,
                  0,
                  0,
                  0,
                  0,
                  0,
                  0,
                  0,
                  0
                ]
              },
              {
                "default_left": [
                  1,
                  1,
                  1,
                  1,
                  1,
                  1,
                  1,
                  1,
                  1,
                  1,
                  1,
                  1,
                  1,
                  1,
                  1,
                  0,
                  0,
                  0,
                  0,
                  0,
                  0,
                  0,
                  0,
                  0,
                  0,
                  0,
                  0,
                  0,
                  0,
                  0,
                  0
                ],
                "split_conditions": [
                  0.38578597,
                  0.5,
                  114.5,
                  -0.31355655,
                  0.36975276,
                  0.5,
                  7.0,
                  9.5,
                  0.36975276,
                  0.4034023,
                  115.500015,
                  110.5,
                  23.5,
                  0.5,
                  0.5,
                  1.7837044,
                  0.11100289,
                  -0.053567037,
                  -2.2936642,
                  0.030605394,
                  0.9717079,
                  7.8913655,
                  -1.6684932,
                  0.122716665,
                  5.8942976,
                  -3.306705,
                  5.0570526,
                  -0.24719405,
                  -2.651322,
                  -1.3182119,
                  -3.381767
                ],
                "categories_nodes": [],
                "tree_param": {
                  "size_leaf_vector": "0",
                  "num_feature": "68",
                  "num_nodes": "31",
                  "num_deleted": "0"
                },
                "base_weights": [
                  0.0029218493,
                  -0.023732323,
                  1.4778979,
                  -0.16945828,
                  0.17718942,
                  2.3607607,
                  -4.5550933,
                  4.6470823,
                  -0.19136234,
                  0.15144402,
                  19.982037,
                  1.0902411,
                  9.724952,
                  -2.924037,
                  -8.607604,
                  5.945681,
                  0.37000963,
                  -0.17855678,
                  -7.645547,
                  0.10201798,
                  3.239026,
                  26.30455,
                  -5.5616436,
                  0.40905553,
                  19.647657,
                  -11.022349,
                  16.856842,
                  -0.82398015,
                  -8.837739,
                  -4.3940396,
                  -11.272556
                ],
                "parents": [
                  2147483647,
                  0,
                  0,
                  1,
                  1,
                  2,
                  2,
                  3,
                  3,
                  4,
                  4,
                  5,
                  5,
                  6,
                  6,
                  7,
                  7,
                  8,
                  8,
                  9,
                  9,
                  10,
                  10,
                  11,
                  11,
                  12,
                  12,
                  13,
                  13,
                  14,
                  14
                ],
                "categories_segments": [],
                "categories_sizes": [],
                "right_children": [
                  2,
                  4,
                  6,
                  8,
                  10,
                  12,
                  14,
                  16,
                  18,
                  20,
                  22,
                  24,
                  26,
                  28,
                  30,
                  -1,
                  -1,
                  -1,
                  -1,
                  -1,
                  -1,
                  -1,
                  -1,
                  -1,
                  -1,
                  -1,
                  -1,
                  -1,
                  -1,
                  -1,
                  -1
                ],
                "sum_hessian": [
                  29857.0,
                  29328.0,
                  529.0,
                  16999.0,
                  12329.0,
                  462.0,
                  67.0,
                  76.0,
                  16923.0,
                  12314.0,
                  15.0,
                  395.0,
                  67.0,
                  49.0,
                  18.0,
                  58.0,
                  18.0,
                  16895.0,
                  28.0,
                  12121.0,
                  193.0,
                  12.0,
                  3.0,
                  382.0,
                  13.0,
                  17.0,
                  50.0,
                  37.0,
                  12.0,
                  8.0,
                  10.0
                ],
                "id": 8,
                "left_children": [
                  1,
                  3,
                  5,
                  7,
                  9,
                  11,
                  13,
                  15,
                  17,
                  19,
                  21,
                  23,
                  25,
                  27,
                  29,
                  -1,
                  -1,
                  -1,
                  -1,
                  -1,
                  -1,
                  -1,
                  -1,
                  -1,
                  -1,
                  -1,
                  -1,
                  -1,
                  -1,
                  -1,
                  -1
                ],
                "split_indices": [
                  27,
                  60,
                  3,
                  6,
                  39,
                  59,
                  1,
                  1,
                  39,
                  50,
                  3,
                  3,
                  3,
                  59,
                  60,
                  0,
                  0,
                  0,
                  0,
                  0,
                  0,
                  0,
                  0,
                  0,
                  0,
                  0,
                  0,
                  0,
                  0,
                  0,
                  0
                ],
                "loss_changes": [
                  1173.8804,
                  858.7689,
                  2833.6943,
                  1794.4193,
                  6283.843,
                  4321.3867,
                  424.3024,
                  425.47342,
                  1614.1151,
                  1879.024,
                  2730.3008,
                  4997.817,
                  10247.592,
                  613.67346,
                  163.81796,
                  0.0,
                  0.0,
                  0.0,
                  0.0,
                  0.0,
                  0.0,
                  0.0,
                  0.0,
                  0.0,
                  0.0,
                  0.0,
                  0.0,
                  0.0,
                  0.0,
                  0.0,
                  0.0
                ],
                "categories": [],
                "split_type": [
                  0,
                  0,
                  0,
                  0,
                  0,
                  0,
                  0,
                  0,
                  0,
                  0,
                  0,
                  0,
                  0,
                  0,
                  0,
                  0,
                  0,
                  0,
                  0,
                  0,
                  0,
                  0,
                  0,
                  0,
                  0,
                  0,
                  0,
                  0,
                  0,
                  0,
                  0
                ]
              },
              {
                "default_left": [
                  1,
                  1,
                  1,
                  1,
                  1,
                  1,
                  1,
                  1,
                  1,
                  1,
                  1,
                  1,
                  1,
                  1,
                  1,
                  0,
                  0,
                  0,
                  0,
                  0,
                  0,
                  0,
                  0,
                  0,
                  0,
                  0,
                  0,
                  0,
                  0,
                  0,
                  0
                ],
                "split_conditions": [
                  0.5,
                  0.18469013,
                  -0.17580809,
                  -0.15097363,
                  116.49999,
                  0.5,
                  0.2674433,
                  7.5,
                  0.59050435,
                  96.5,
                  0.10714597,
                  -0.011604379,
                  0.0003701329,
                  0.4034023,
                  0.5,
                  0.6133407,
                  0.026038935,
                  0.0011872901,
                  0.7356017,
                  0.39494193,
                  3.606576,
                  -0.33216813,
                  -1.9182311,
                  -0.06667256,
                  0.017258974,
                  0.21547075,
                  -0.047940213,
                  -0.07788378,
                  -0.25838432,
                  -0.0055986405,
                  0.17160925
                ],
                "categories_nodes": [],
                "tree_param": {
                  "size_leaf_vector": "0",
                  "num_feature": "68",
                  "num_nodes": "31",
                  "num_deleted": "0"
                },
                "base_weights": [
                  0.0022777899,
                  0.15217432,
                  -0.16444726,
                  0.0978831,
                  1.5445323,
                  0.12699656,
                  -0.23666987,
                  0.9837117,
                  0.025307681,
                  2.2112055,
                  -2.3353276,
                  -0.06759072,
                  0.38628694,
                  -0.27549326,
                  0.26187623,
                  2.0444689,
                  0.08679645,
                  0.0039576334,
                  2.4520056,
                  1.316473,
                  12.021919,
                  -1.1072271,
                  -6.3941035,
                  -0.22224188,
                  0.057529908,
                  0.7182358,
                  -0.15980071,
                  -0.2596126,
                  -0.86128104,
                  -0.018662134,
                  0.57203084
                ],
                "parents": [
                  2147483647,
                  0,
                  0,
                  1,
                  1,
                  2,
                  2,
                  3,
                  3,
                  4,
                  4,
                  5,
                  5,
                  6,
                  6,
                  7,
                  7,
                  8,
                  8,
                  9,
                  9,
                  10,
                  10,
                  11,
                  11,
                  12,
                  12,
                  13,
                  13,
                  14,
                  14
                ],
                "categories_segments": [],
                "categories_sizes": [],
                "right_children": [
                  2,
                  4,
                  6,
                  8,
                  10,
                  12,
                  14,
                  16,
                  18,
                  20,
                  22,
                  24,
                  26,
                  28,
                  30,
                  -1,
                  -1,
                  -1,
                  -1,
                  -1,
                  -1,
                  -1,
                  -1,
                  -1,
                  -1,
                  -1,
                  -1,
                  -1,
                  -1,
                  -1,
                  -1
                ],
                "sum_hessian": [
                  29857.0,
                  15722.0,
                  14135.0,
                  15133.0,
                  589.0,
                  2807.0,
                  11328.0,
                  1145.0,
                  13988.0,
                  503.0,
                  86.0,
                  1604.0,
                  1203.0,
                  10510.0,
                  818.0,
                  524.0,
                  621.0,
                  13867.0,
                  121.0,
                  462.0,
                  41.0,
                  67.0,
                  19.0,
                  717.0,
                  887.0,
                  748.0,
                  455.0,
                  10234.0,
                  276.0,
                  430.0,
                  388.0
                ],
                "id": 9,
                "left_children": [
                  1,
                  3,
                  5,
                  7,
                  9,
                  11,
                  13,
                  15,
                  17,
                  19,
                  21,
                  23,
                  25,
                  27,
                  29,
                  -1,
                  -1,
                  -1,
                  -1,
                  -1,
                  -1,
                  -1,
                  -1,
                  -1,
                  -1,
                  -1,
                  -1,
                  -1,
                  -1,
                  -1,
                  -1
                ],
                "split_indices": [
                  55,
                  28,
                  6,
                  30,
                  3,
                  60,
                  8,
                  1,
                  8,
                  3,
                  7,
                  24,
                  48,
                  50,
                  60,
                  0,
                  0,
                  0,
                  0,
                  0,
                  0,
                  0,
                  0,
                  0,
                  0,
                  0,
                  0,
                  0,
                  0,
                  0,
                  0
                ],
                "loss_changes": [
                  746.22144,
                  1188.3948,
                  297.57632,
                  972.93054,
                  1531.2571,
                  141.70265,
                  219.34773,
                  1090.1377,
                  724.7621,
                  4408.2676,
                  426.57916,
                  31.069616,
                  218.36765,
                  97.557144,
                  71.27209,
                  0.0,
                  0.0,
                  0.0,
                  0.0,
                  0.0,
                  0.0,
                  0.0,
                  0.0,
                  0.0,
                  0.0,
                  0.0,
                  0.0,
                  0.0,
                  0.0,
                  0.0,
                  0.0
                ],
                "categories": [],
                "split_type": [
                  0,
                  0,
                  0,
                  0,
                  0,
                  0,
                  0,
                  0,
                  0,
                  0,
                  0,
                  0,
                  0,
                  0,
                  0,
                  0,
                  0,
                  0,
                  0,
                  0,
                  0,
                  0,
                  0,
                  0,
                  0,
                  0,
                  0,
                  0,
                  0,
                  0,
                  0
                ]
              },
              {
                "default_left": [
                  1,
                  1,
                  1,
                  1,
                  1,
                  1,
                  1,
                  1,
                  1,
                  1,
                  1,
                  1,
                  0,
                  0,
                  1,
                  0,
                  0,
                  0,
                  0,
                  0,
                  0,
                  0,
                  0,
                  0,
                  0,
                  0,
                  0
                ],
                "split_conditions": [
                  0.21598315,
                  0.20223728,
                  18.5,
                  0.14042662,
                  -0.00798929,
                  0.5,
                  27.500002,
                  81.50001,
                  52.5,
                  0.5,
                  0.5,
                  17.5,
                  0.14015666,
                  3.320274,
                  0.5,
                  -0.03646931,
                  0.06007246,
                  0.4581608,
                  -0.030492228,
                  -0.3006739,
                  -0.12613472,
                  -0.67279243,
                  -0.3765398,
                  -0.95083266,
                  -0.15984336,
                  0.5699892,
                  1.6468446
                ],
                "categories_nodes": [],
                "tree_param": {
                  "size_leaf_vector": "0",
                  "num_feature": "68",
                  "num_nodes": "27",
                  "num_deleted": "0"
                },
                "base_weights": [
                  0.0016974516,
                  -0.005710819,
                  2.8302102,
                  0.0114101805,
                  -0.99628127,
                  -2.6051111,
                  3.6678326,
                  -0.021667097,
                  0.5847149,
                  -0.929033,
                  -2.1111267,
                  -2.9590602,
                  0.46718884,
                  11.06758,
                  2.6372454,
                  -0.121564366,
                  0.20024152,
                  1.5272026,
                  -0.10164075,
                  -1.0022463,
                  -0.42044905,
                  -2.2426414,
                  -1.2551326,
                  -3.1694422,
                  -0.53281116,
                  1.8999639,
                  5.489482
                ],
                "parents": [
                  2147483647,
                  0,
                  0,
                  1,
                  1,
                  2,
                  2,
                  3,
                  3,
                  4,
                  4,
                  5,
                  5,
                  6,
                  6,
                  7,
                  7,
                  8,
                  8,
                  9,
                  9,
                  10,
                  10,
                  11,
                  11,
                  14,
                  14
                ],
                "categories_segments": [],
                "categories_sizes": [],
                "right_children": [
                  2,
                  4,
                  6,
                  8,
                  10,
                  12,
                  14,
                  16,
                  18,
                  20,
                  22,
                  24,
                  -1,
                  -1,
                  26,
                  -1,
                  -1,
                  -1,
                  -1,
                  -1,
                  -1,
                  -1,
                  -1,
                  -1,
                  -1,
                  -1,
                  -1
                ],
                "sum_hessian": [
                  29857.0,
                  29780.0,
                  77.0,
                  29275.0,
                  505.0,
                  10.0,
                  67.0,
                  27679.0,
                  1596.0,
                  478.0,
                  27.0,
                  9.0,
                  1.0,
                  7.0,
                  60.0,
                  19087.0,
                  8592.0,
                  672.0,
                  924.0,
                  417.0,
                  61.0,
                  22.0,
                  5.0,
                  8.0,
                  1.0,
                  49.0,
                  11.0
                ],
                "id": 10,
                "left_children": [
                  1,
                  3,
                  5,
                  7,
                  9,
                  11,
                  13,
                  15,
                  17,
                  19,
                  21,
                  23,
                  -1,
                  -1,
                  25,
                  -1,
                  -1,
                  -1,
                  -1,
                  -1,
                  -1,
                  -1,
                  -1,
                  -1,
                  -1,
                  -1,
                  -1
                ],
                "split_indices": [
                  41,
                  29,
                  3,
                  29,
                  47,
                  67,
                  3,
                  3,
                  3,
                  55,
                  63,
                  3,
                  0,
                  0,
                  62,
                  0,
                  0,
                  0,
                  0,
                  0,
                  0,
                  0,
                  0,
                  0,
                  0,
                  0,
                  0
                ],
                "loss_changes": [
                  625.67224,
                  505.08392,
                  364.6694,
                  555.18396,
                  35.974274,
                  13.344249,
                  489.38583,
                  613.6364,
                  1033.2255,
                  17.414228,
                  0.337311,
                  3.4156764,
                  0.0,
                  0.0,
                  117.847176,
                  0.0,
                  0.0,
                  0.0,
                  0.0,
                  0.0,
                  0.0,
                  0.0,
                  0.0,
                  0.0,
                  0.0,
                  0.0,
                  0.0
                ],
                "categories": [],
                "split_type": [
                  0,
                  0,
                  0,
                  0,
                  0,
                  0,
                  0,
                  0,
                  0,
                  0,
                  0,
                  0,
                  0,
                  0,
                  0,
                  0,
                  0,
                  0,
                  0,
                  0,
                  0,
                  0,
                  0,
                  0,
                  0,
                  0,
                  0
                ]
              },
              {
                "default_left": [
                  1,
                  1,
                  1,
                  1,
                  1,
                  1,
                  1,
                  1,
                  1,
                  1,
                  1,
                  1,
                  1,
                  0,
                  1,
                  0,
                  0,
                  0,
                  0,
                  0,
                  0,
                  0,
                  0,
                  0,
                  0,
                  0,
                  0,
                  0,
                  0
                ],
                "split_conditions": [
                  0.58138716,
                  0.5,
                  20.5,
                  -0.23921962,
                  0.36975276,
                  10.5,
                  28.000002,
                  116.49999,
                  -0.31355655,
                  -0.1616711,
                  115.500015,
                  0.5,
                  0.5,
                  2.934977,
                  49.5,
                  -3.4010863,
                  -1.0046686,
                  0.9865698,
                  -0.031374767,
                  0.5464952,
                  0.016191127,
                  5.7141795,
                  -1.2864885,
                  1.1490104,
                  -0.13676134,
                  -1.1982214,
                  -0.28234845,
                  0.050813306,
                  1.2374573
                ],
                "categories_nodes": [],
                "tree_param": {
                  "size_leaf_vector": "0",
                  "num_feature": "68",
                  "num_nodes": "29",
                  "num_deleted": "0"
                },
                "base_weights": [
                  0.0013068309,
                  -0.0039779865,
                  2.500753,
                  -0.10258137,
                  0.13201532,
                  -0.65765256,
                  3.2568023,
                  -10.399896,
                  -0.08944414,
                  0.11374999,
                  14.403828,
                  3.0397384,
                  -3.3484893,
                  9.783257,
                  2.6450813,
                  -11.336954,
                  -3.348895,
                  3.2885659,
                  -0.10458255,
                  1.8216505,
                  0.053970423,
                  19.047264,
                  -4.288295,
                  3.8300345,
                  -0.4558711,
                  -3.9940715,
                  -0.94116145,
                  0.16937768,
                  4.1248574
                ],
                "parents": [
                  2147483647,
                  0,
                  0,
                  1,
                  1,
                  2,
                  2,
                  3,
                  3,
                  4,
                  4,
                  5,
                  5,
                  6,
                  6,
                  7,
                  7,
                  8,
                  8,
                  9,
                  9,
                  10,
                  10,
                  11,
                  11,
                  12,
                  12,
                  14,
                  14
                ],
                "categories_segments": [],
                "categories_sizes": [],
                "right_children": [
                  2,
                  4,
                  6,
                  8,
                  10,
                  12,
                  14,
                  16,
                  18,
                  20,
                  22,
                  24,
                  26,
                  -1,
                  28,
                  -1,
                  -1,
                  -1,
                  -1,
                  -1,
                  -1,
                  -1,
                  -1,
                  -1,
                  -1,
                  -1,
                  -1,
                  -1,
                  -1
                ],
                "sum_hessian": [
                  29857.0,
                  29795.0,
                  62.0,
                  17272.0,
                  12523.0,
                  12.0,
                  50.0,
                  21.0,
                  17251.0,
                  12508.0,
                  15.0,
                  5.0,
                  7.0,
                  3.0,
                  47.0,
                  18.0,
                  3.0,
                  76.0,
                  17175.0,
                  422.0,
                  12086.0,
                  12.0,
                  3.0,
                  4.0,
                  1.0,
                  5.0,
                  2.0,
                  18.0,
                  29.0
                ],
                "id": 11,
                "left_children": [
                  1,
                  3,
                  5,
                  7,
                  9,
                  11,
                  13,
                  15,
                  17,
                  19,
                  21,
                  23,
                  25,
                  -1,
                  27,
                  -1,
                  -1,
                  -1,
                  -1,
                  -1,
                  -1,
                  -1,
                  -1,
                  -1,
                  -1,
                  -1,
                  -1,
                  -1,
                  -1
                ],
                "split_indices": [
                  6,
                  60,
                  3,
                  24,
                  39,
                  3,
                  3,
                  3,
                  6,
                  22,
                  3,
                  66,
                  67,
                  0,
                  3,
                  0,
                  0,
                  0,
                  0,
                  0,
                  0,
                  0,
                  0,
                  0,
                  0,
                  0,
                  0,
                  0,
                  0
                ],
                "loss_changes": [
                  394.40775,
                  399.56003,
                  152.58022,
                  2335.73,
                  3263.1099,
                  139.51651,
                  177.73338,
                  107.3921,
                  882.57153,
                  1277.04,
                  1470.411,
                  18.321402,
                  8.67396,
                  0.0,
                  175.14873,
                  0.0,
                  0.0,
                  0.0,
                  0.0,
                  0.0,
                  0.0,
                  0.0,
                  0.0,
                  0.0,
                  0.0,
                  0.0,
                  0.0,
                  0.0,
                  0.0
                ],
                "categories": [],
                "split_type": [
                  0,
                  0,
                  0,
                  0,
                  0,
                  0,
                  0,
                  0,
                  0,
                  0,
                  0,
                  0,
                  0,
                  0,
                  0,
                  0,
                  0,
                  0,
                  0,
                  0,
                  0,
                  0,
                  0,
                  0,
                  0,
                  0,
                  0,
                  0,
                  0
                ]
              },
              {
                "default_left": [
                  1,
                  1,
                  1,
                  1,
                  1,
                  1,
                  1,
                  1,
                  1,
                  1,
                  1,
                  1,
                  1,
                  1,
                  1,
                  0,
                  0,
                  0,
                  0,
                  0,
                  0,
                  0,
                  0,
                  0,
                  0,
                  0,
                  0,
                  0,
                  0,
                  0,
                  0
                ],
                "split_conditions": [
                  -0.3524688,
                  43.5,
                  0.024659565,
                  32.5,
                  0.5,
                  0.5,
                  0.57214797,
                  27.500002,
                  0.5,
                  9.5,
                  59.500004,
                  0.05725377,
