{
  "num_round": 100,
  "interaction_constraints": [],
  "monotone_constraints": {},
  "params": {
    "minbucket": 0.01,
    "num_estimators": 20,
    "max_depth": 4
  },
  "checkpoint_interval": 10,
  "model_": {
    "inner": {
      "learner": {
        "learner_model_param": {
          "num_class": "0",
          "num_feature": "75",
          "base_score": "1.3565704E0",
          "num_target": "1",
          "boost_from_average": "0"
        },
        "feature_names": [],
        "attributes": {},
        "objective": {
          "name": "reg:squarederror",
          "reg_loss_param": {
            "scale_pos_weight": "1"
          }
        },
        "feature_types": [],
        "gradient_booster": {
          "name": "gbtree",
          "model": {
            "iteration_indptr": [
              0,
              1,
              2,
              3,
              4,
              5,
              6,
              7,
              8,
              9,
              10,
              11,
              12,
              13,
              14,
              15,
              16,
              17,
              18,
              19,
              20,
              21,
              22,
              23,
              24,
              25,
              26,
              27,
              28,
              29,
              30,
              31,
              32,
              33,
              34,
              35,
              36,
              37,
              38,
              39,
              40,
              41,
              42,
              43,
              44,
              45,
              46,
              47,
              48,
              49,
              50,
              51,
              52,
              53,
              54,
              55,
              56,
              57,
              58,
              59,
              60,
              61,
              62,
              63,
              64,
              65,
              66,
              67,
              68,
              69,
              70,
              71,
              72,
              73,
              74,
              75,
              76,
              77,
              78,
              79,
              80,
              81,
              82,
              83,
              84,
              85,
              86,
              87,
              88,
              89,
              90,
              91,
              92,
              93,
              94,
              95,
              96,
              97,
              98,
              99,
              100
            ],
            "trees": [
              {
                "default_left": [
                  1,
                  1,
                  1,
                  1,
                  1,
                  1,
                  1,
                  1,
                  1,
                  1,
                  1,
                  0,
                  1,
                  1,
                  1,
                  0,
                  0,
                  0,
                  0,
                  0,
                  0,
                  0,
                  0,
                  0,
                  0,
                  0,
                  0,
                  0,
                  0
                ],
                "split_conditions": [
                  17.0,
                  0.5,
                  0.17500001,
                  250025.0,
                  61.500004,
                  0.005,
                  0.5,
                  0.26500002,
                  5.395,
                  0.3,
                  85.5,
                  -0.40694973,
                  -0.6363158,
                  -0.026803745,
                  -0.044495676,
                  -0.3888095,
                  1.4525251,
                  3.847486,
                  8.668359,
                  45.716766,
                  18.455105,
                  11.5683775,
                  1.3801603,
                  -0.08083169,
                  0.039718978,
                  0.82786644,
                  0.16276652,
                  5.8347683,
                  1.130942
                ],
                "categories_nodes": [],
                "tree_param": {
                  "size_leaf_vector": "1",
                  "num_feature": "75",
                  "num_nodes": "29",
                  "num_deleted": "0"
                },
                "base_weights": [
                  -5.925338e-9,
                  19.599813,
                  -0.38014126,
                  8.732457,
                  86.34415,
                  -1.3527819,
                  1.4714329,
                  3.1036377,
                  25.9214,
                  130.02075,
                  24.71274,
                  -1.3564991,
                  -0.18952891,
                  0.84765804,
                  4.698418,
                  -1.2960316,
                  4.84175,
                  12.824953,
                  28.894527,
                  152.38922,
                  61.517014,
                  38.561256,
                  4.6005344,
                  -0.26943895,
                  0.1323966,
                  2.7595546,
                  0.54255503,
                  19.449226,
                  3.7698066
                ],
                "parents": [
                  2147483647,
                  0,
                  0,
                  1,
                  1,
                  2,
                  2,
                  3,
                  3,
                  4,
                  4,
                  5,
                  5,
                  6,
                  6,
                  7,
                  7,
                  8,
                  8,
                  9,
                  9,
                  10,
                  10,
                  12,
                  12,
                  13,
                  13,
                  14,
                  14
                ],
                "categories_segments": [],
                "categories_sizes": [],
                "right_children": [
                  2,
                  4,
                  6,
                  8,
                  10,
                  12,
                  14,
                  16,
                  18,
                  20,
                  22,
                  -1,
                  24,
                  26,
                  28,
                  -1,
                  -1,
                  -1,
                  -1,
                  -1,
                  -1,
                  -1,
                  -1,
                  -1,
                  -1,
                  -1,
                  -1,
                  -1,
                  -1
                ],
                "sum_hessian": [
                  29694.0,
                  564.0,
                  29130.0,
                  486.0,
                  78.0,
                  19098.0,
                  10032.0,
                  367.0,
                  119.0,
                  45.0,
                  33.0,
                  19037.0,
                  61.0,
                  8408.0,
                  1624.0,
                  104.0,
                  263.0,
                  23.0,
                  96.0,
                  33.0,
                  12.0,
                  19.0,
                  14.0,
                  49.0,
                  12.0,
                  1156.0,
                  7252.0,
                  95.0,
                  1529.0
                ],
                "id": 0,
                "left_children": [
                  1,
                  3,
                  5,
                  7,
                  9,
                  11,
                  13,
                  15,
                  17,
                  19,
                  21,
                  -1,
                  23,
                  25,
                  27,
                  -1,
                  -1,
                  -1,
                  -1,
                  -1,
                  -1,
                  -1,
                  -1,
                  -1,
                  -1,
                  -1,
                  -1,
                  -1,
                  -1
                ],
                "split_indices": [
                  7,
                  66,
                  10,
                  4,
                  3,
                  10,
                  61,
                  10,
                  10,
                  10,
                  3,
                  0,
                  11,
                  51,
                  49,
                  0,
                  0,
                  0,
                  0,
                  0,
                  0,
                  0,
                  0,
                  0,
                  0,
                  0,
                  0,
                  0,
                  0
                ],
                "loss_changes": [
                  221255.9,
                  409059.94,
                  52464.48,
                  47038.484,
                  209443.02,
                  82.32881,
                  20191.566,
                  2820.415,
                  4301.9175,
                  61112.348,
                  9292.422,
                  0.0,
                  1.6306279,
                  4903.6855,
                  22185.564,
                  0.0,
                  0.0,
                  0.0,
                  0.0,
                  0.0,
                  0.0,
                  0.0,
                  0.0,
                  0.0,
                  0.0,
                  0.0,
                  0.0,
                  0.0,
                  0.0
                ],
                "categories": [],
                "split_type": [
                  0,
                  0,
                  0,
                  0,
                  0,
                  0,
                  0,
                  0,
                  0,
                  0,
                  0,
                  0,
                  0,
                  0,
                  0,
                  0,
                  0,
                  0,
                  0,
                  0,
                  0,
                  0,
                  0,
                  0,
                  0,
                  0,
                  0,
                  0,
                  0
                ]
              },
              {
                "default_left": [
                  1,
                  1,
                  1,
                  1,
                  1,
                  1,
                  1,
                  1,
                  1,
                  1,
                  1,
                  0,
                  1,
                  1,
                  1,
                  0,
                  0,
                  0,
                  0,
                  0,
                  0,
                  0,
                  0,
                  0,
                  0,
                  0,
                  0,
                  0,
                  0
                ],
                "split_conditions": [
                  17.0,
                  0.5,
                  0.205,
                  250025.0,
                  57.5,
                  0.005,
                  0.21779816,
                  0.26500002,
                  5.255,
                  0.3,
                  85.5,
                  -0.28487122,
                  0.051211596,
                  0.5,
                  1.585,
                  -0.27327752,
                  1.0184182,
                  1.989443,
                  5.9918613,
                  33.531815,
                  13.34446,
                  8.826536,
                  0.99371547,
                  -0.08252415,
                  0.5037941,
                  0.17895937,
                  0.8658865,
                  9.219597,
                  0.6669433
                ],
                "categories_nodes": [],
                "tree_param": {
                  "size_leaf_vector": "1",
                  "num_feature": "75",
                  "num_nodes": "29",
                  "num_deleted": "0"
                },
                "base_weights": [
                  0.0033072187,
                  13.8804,
                  -0.26584113,
                  6.1406045,
                  61.41711,
                  -0.9452932,
                  1.0351033,
                  2.175437,
                  18.249279,
                  94.43151,
                  19.360142,
                  -0.9495707,
                  -0.12147979,
                  0.9567622,
                  15.712659,
                  -0.91092503,
                  3.394727,
                  6.6314764,
                  19.97287,
                  111.772705,
                  44.48153,
                  29.421787,
                  3.3123848,
                  -0.2750805,
                  1.6793134,
                  0.5965312,
                  2.8862882,
                  30.731989,
                  2.2231443
                ],
                "parents": [
                  2147483647,
                  0,
                  0,
                  1,
                  1,
                  2,
                  2,
                  3,
                  3,
                  4,
                  4,
                  5,
                  5,
                  6,
                  6,
                  7,
                  7,
                  8,
                  8,
                  9,
                  9,
                  10,
                  10,
                  12,
                  12,
                  13,
                  13,
                  14,
                  14
                ],
                "categories_segments": [],
                "categories_sizes": [],
                "right_children": [
                  2,
                  4,
                  6,
                  8,
                  10,
                  12,
                  14,
                  16,
                  18,
                  20,
                  22,
                  -1,
                  24,
                  26,
                  28,
                  -1,
                  -1,
                  -1,
                  -1,
                  -1,
                  -1,
                  -1,
                  -1,
                  -1,
                  -1,
                  -1,
                  -1,
                  -1,
                  -1
                ],
                "sum_hessian": [
                  29694.0,
                  564.0,
                  29130.0,
                  486.0,
                  78.0,
                  19136.0,
                  9994.0,
                  367.0,
                  119.0,
                  43.0,
                  35.0,
                  19037.0,
                  99.0,
                  9942.0,
                  52.0,
                  104.0,
                  263.0,
                  16.0,
                  103.0,
                  31.0,
                  12.0,
                  21.0,
                  14.0,
                  92.0,
                  7.0,
                  8379.0,
                  1563.0,
                  24.0,
                  28.0
                ],
                "id": 1,
                "left_children": [
                  1,
                  3,
                  5,
                  7,
                  9,
                  11,
                  13,
                  15,
                  17,
                  19,
                  21,
                  -1,
                  23,
                  25,
                  27,
                  -1,
                  -1,
                  -1,
                  -1,
                  -1,
                  -1,
                  -1,
                  -1,
                  -1,
                  -1,
                  -1,
                  -1,
                  -1,
                  -1
                ],
                "split_indices": [
                  7,
                  66,
                  10,
                  4,
                  3,
                  10,
                  25,
                  10,
                  10,
                  10,
                  3,
                  0,
                  54,
                  61,
                  10,
                  0,
                  0,
                  0,
                  0,
                  0,
                  0,
                  0,
                  0,
                  0,
                  0,
                  0,
                  0,
                  0,
                  0
                ],
                "loss_changes": [
                  110914.414,
                  207500.16,
                  25750.725,
                  23342.594,
                  107862.164,
                  67.32162,
                  11477.775,
                  1387.9391,
                  2270.47,
                  33140.645,
                  5715.3496,
                  0.0,
                  28.12226,
                  6909.4087,
                  10669.662,
                  0.0,
                  0.0,
                  0.0,
                  0.0,
                  0.0,
                  0.0,
                  0.0,
                  0.0,
                  0.0,
                  0.0,
                  0.0,
                  0.0,
                  0.0,
                  0.0
                ],
                "categories": [],
                "split_type": [
                  0,
                  0,
                  0,
                  0,
                  0,
                  0,
                  0,
                  0,
                  0,
                  0,
                  0,
                  0,
                  0,
                  0,
                  0,
                  0,
                  0,
                  0,
                  0,
                  0,
                  0,
                  0,
                  0,
                  0,
                  0,
                  0,
                  0,
                  0,
                  0
                ]
              },
              {
                "default_left": [
                  1,
                  1,
                  1,
                  1,
                  1,
                  1,
                  1,
                  1,
                  1,
                  1,
                  1,
                  0,
                  1,
                  1,
                  1,
                  0,
                  0,
                  0,
                  0,
                  0,
                  0,
                  0,
                  0,
                  0,
                  0,
                  0,
                  0,
                  0,
                  0
                ],
                "split_conditions": [
                  17.0,
                  0.5,
                  0.295,
                  250025.0,
                  54.5,
                  0.005,
                  -0.10931438,
                  4.81,
                  6.4500003,
                  23.5,
                  85.5,
                  -0.19941434,
                  0.051211596,
                  0.5,
                  0.15606758,
                  0.21160577,
                  1.415056,
                  2.5996408,
                  5.021275,
                  10.357742,
                  26.035158,
                  6.521397,
                  0.71547514,
                  -0.15539896,
                  0.71298206,
                  -1.0975579,
                  3.0451682,
                  0.17782451,
                  4.577119
                ],
                "categories_nodes": [],
                "tree_param": {
                  "size_leaf_vector": "1",
                  "num_feature": "75",
                  "num_nodes": "29",
                  "num_deleted": "0"
                },
                "base_weights": [
                  0.004890927,
                  9.832072,
                  -0.18570887,
                  4.3163414,
                  43.709652,
                  -0.65577763,
                  0.74803877,
                  1.5248305,
                  12.841005,
                  68.942314,
                  14.670671,
                  -0.66471446,
                  -0.15343785,
                  7.4189844,
                  0.6416759,
                  0.70535254,
                  4.716853,
                  8.665469,
                  16.737583,
                  34.525806,
                  86.78386,
                  21.73799,
                  2.384917,
                  -0.51799655,
                  2.3766067,
                  -3.6585262,
                  10.15056,
                  0.59274834,
                  15.257063
                ],
                "parents": [
                  2147483647,
                  0,
                  0,
                  1,
                  1,
                  2,
                  2,
                  3,
                  3,
                  4,
                  4,
                  5,
                  5,
                  6,
                  6,
                  7,
                  7,
                  8,
                  8,
                  9,
                  9,
                  10,
                  10,
                  12,
                  12,
                  13,
                  13,
                  14,
                  14
                ],
                "categories_segments": [],
                "categories_sizes": [],
                "right_children": [
                  2,
                  4,
                  6,
                  8,
                  10,
                  12,
                  14,
                  16,
                  18,
                  20,
                  22,
                  -1,
                  24,
                  26,
                  28,
                  -1,
                  -1,
                  -1,
                  -1,
                  -1,
                  -1,
                  -1,
                  -1,
                  -1,
                  -1,
                  -1,
                  -1,
                  -1,
                  -1
                ],
                "sum_hessian": [
                  29694.0,
                  564.0,
                  29130.0,
                  486.0,
                  78.0,
                  19376.0,
                  9754.0,
                  367.0,
                  119.0,
                  41.0,
                  37.0,
                  19037.0,
                  339.0,
                  152.0,
                  9602.0,
                  293.0,
                  74.0,
                  59.0,
                  60.0,
                  15.0,
                  26.0,
                  23.0,
                  14.0,
                  297.0,
                  42.0,
                  30.0,
                  122.0,
                  9571.0,
                  31.0
                ],
                "id": 2,
                "left_children": [
                  1,
                  3,
                  5,
                  7,
                  9,
                  11,
                  13,
                  15,
                  17,
                  19,
                  21,
                  -1,
                  23,
                  25,
                  27,
                  -1,
                  -1,
                  -1,
                  -1,
                  -1,
                  -1,
                  -1,
                  -1,
                  -1,
                  -1,
                  -1,
                  -1,
                  -1,
                  -1
                ],
                "split_indices": [
                  7,
                  66,
                  10,
                  4,
                  3,
                  10,
                  31,
                  10,
                  10,
                  3,
                  3,
                  0,
                  54,
                  67,
                  30,
                  0,
                  0,
                  0,
                  0,
                  0,
                  0,
                  0,
                  0,
                  0,
                  0,
                  0,
                  0,
                  0,
                  0
                ],
                "loss_changes": [
                  55622.305,
                  105387.016,
                  12786.832,
                  11569.409,
                  56874.293,
                  86.88785,
                  6916.812,
                  959.2845,
                  1807.3971,
                  22793.553,
                  3247.5957,
                  0.0,
                  314.82996,
                  4666.773,
                  6858.0083,
                  0.0,
                  0.0,
                  0.0,
                  0.0,
                  0.0,
                  0.0,
                  0.0,
                  0.0,
                  0.0,
                  0.0,
                  0.0,
                  0.0,
                  0.0,
                  0.0
                ],
                "categories": [],
                "split_type": [
                  0,
                  0,
                  0,
                  0,
                  0,
                  0,
                  0,
                  0,
                  0,
                  0,
                  0,
                  0,
                  0,
                  0,
                  0,
                  0,
                  0,
                  0,
                  0,
                  0,
                  0,
                  0,
                  0,
                  0,
                  0,
                  0,
                  0,
                  0,
                  0
                ]
              },
              {
                "default_left": [
                  1,
                  1,
                  1,
                  1,
                  1,
                  1,
                  1,
                  1,
                  1,
                  1,
                  1,
                  1,
                  1,
                  1,
                  1,
                  0,
                  0,
                  0,
                  0,
                  0,
                  0,
                  0,
                  0,
                  0,
                  0,
                  0,
                  0,
                  0,
                  0,
                  0,
                  0
                ],
                "split_conditions": [
                  17.0,
                  0.5,
                  0.81500006,
                  250025.0,
                  65.5,
                  0.12282054,
                  0.15606758,
                  0.5,
                  42.5,
                  0.3,
                  0.285,
                  -0.18372962,
                  0.5,
                  0.21779816,
                  1.8299999,
                  -0.34132054,
                  0.5534567,
                  3.8808107,
                  1.4858363,
                  16.786713,
                  6.378658,
                  -1.3349416,
                  2.9144251,
                  -1.3000585,
                  -0.13436104,
                  -0.17272097,
                  1.1294425,
                  0.15279551,
                  3.5051038,
                  9.6823845,
                  -2.5290153
                ],
                "categories_nodes": [],
                "tree_param": {
                  "size_leaf_vector": "1",
                  "num_feature": "75",
                  "num_nodes": "31",
                  "num_deleted": "0"
                },
                "base_weights": [
                  0.005442112,
                  6.976039,
                  -0.12975381,
                  3.040428,
                  31.149033,
                  -0.42216343,
                  0.623706,
                  1.0718017,
                  9.052212,
                  46.477196,
                  5.915839,
                  -0.45207095,
                  0.7286082,
                  0.5740284,
                  18.939943,
                  -1.1377351,
                  1.8448557,
                  12.936035,
                  4.9527874,
                  55.955708,
                  21.262192,
                  -4.4498053,
                  9.71475,
                  -4.333528,
                  -0.4478701,
                  -0.5757365,
                  3.7648082,
                  0.50931835,
                  11.683679,
                  32.274612,
                  -8.430051
                ],
                "parents": [
                  2147483647,
                  0,
                  0,
                  1,
                  1,
                  2,
                  2,
                  3,
                  3,
                  4,
                  4,
                  5,
                  5,
                  6,
                  6,
                  7,
                  7,
                  8,
                  8,
                  9,
                  9,
                  10,
                  10,
                  11,
                  11,
                  12,
                  12,
                  13,
                  13,
                  14,
                  14
                ],
                "categories_segments": [],
                "categories_sizes": [],
                "right_children": [
                  2,
                  4,
                  6,
                  8,
                  10,
                  12,
                  14,
                  16,
                  18,
                  20,
                  22,
                  24,
                  26,
                  28,
                  30,
                  -1,
                  -1,
                  -1,
                  -1,
                  -1,
                  -1,
                  -1,
                  -1,
                  -1,
                  -1,
                  -1,
                  -1,
                  -1,
                  -1,
                  -1,
                  -1
                ],
                "sum_hessian": [
                  29694.0,
                  564.0,
                  29130.0,
                  486.0,
                  78.0,
                  20986.0,
                  8144.0,
                  367.0,
                  119.0,
                  48.0,
                  30.0,
                  20455.0,
                  531.0,
                  8123.0,
                  21.0,
                  95.0,
                  272.0,
                  60.0,
                  59.0,
                  34.0,
                  14.0,
                  8.0,
                  22.0,
                  21.0,
                  20434.0,
                  372.0,
                  159.0,
                  8077.0,
                  46.0,
                  14.0,
                  7.0
                ],
                "id": 3,
                "left_children": [
                  1,
                  3,
                  5,
                  7,
                  9,
                  11,
                  13,
                  15,
                  17,
                  19,
                  21,
                  23,
                  25,
                  27,
                  29,
                  -1,
                  -1,
                  -1,
                  -1,
                  -1,
                  -1,
                  -1,
                  -1,
                  -1,
                  -1,
                  -1,
                  -1,
                  -1,
                  -1,
                  -1,
                  -1
                ],
                "split_indices": [
                  7,
                  66,
                  10,
                  4,
                  3,
                  43,
                  30,
                  61,
                  3,
                  10,
                  10,
                  32,
                  63,
                  25,
                  10,
                  0,
                  0,
                  0,
                  0,
                  0,
                  0,
                  0,
                  0,
                  0,
                  0,
                  0,
                  0,
                  0,
                  0,
                  0,
                  0
                ],
                "loss_changes": [
                  27985.365,
                  53656.85,
                  6418.3726,
                  5753.9214,
                  30280.55,
                  722.63336,
                  7400.3203,
                  630.6765,
                  1846.5037,
                  10521.292,
                  1263.9519,
                  331.60184,
                  2109.0212,
                  5834.4395,
                  8301.412,
                  0.0,
                  0.0,
                  0.0,
                  0.0,
                  0.0,
                  0.0,
                  0.0,
                  0.0,
                  0.0,
                  0.0,
                  0.0,
                  0.0,
                  0.0,
                  0.0,
                  0.0,
                  0.0
                ],
                "categories": [],
                "split_type": [
                  0,
                  0,
                  0,
                  0,
                  0,
                  0,
                  0,
                  0,
                  0,
                  0,
                  0,
                  0,
                  0,
                  0,
                  0,
                  0,
                  0,
                  0,
                  0,
                  0,
                  0,
                  0,
                  0,
                  0,
                  0,
                  0,
                  0,
                  0,
                  0,
                  0,
                  0
                ]
              },
              {
                "default_left": [
                  1,
                  1,
                  1,
                  1,
                  1,
                  1,
                  1,
                  1,
                  1,
                  1,
                  1,
                  1,
                  1,
                  1,
                  1,
                  0,
                  0,
                  0,
                  0,
                  0,
                  0,
                  0,
                  0,
                  0,
                  0,
                  0,
                  0,
                  0,
                  0,
                  0,
                  0
                ],
                "split_conditions": [
                  17.0,
                  0.5,
                  -0.11538198,
                  4.13,
                  36.500004,
                  32.5,
                  -0.3678984,
                  250025.0,
                  17.5,
                  0.275,
                  0.22,
                  20.0,
                  69.5,
                  1.025,
                  -0.34604213,
                  0.05680872,
                  -2.1092417,
                  -0.12157335,
                  1.8982828,
                  27.835997,
                  5.606054,
                  -4.2956977,
                  3.8594782,
                  0.5770858,
                  10.258904,
                  0.24336098,
                  1.9669666,
                  -0.46605113,
                  1.6398653,
                  0.59033716,
                  -0.05178544
                ],
                "categories_nodes": [],
                "tree_param": {
                  "size_leaf_vector": "1",
                  "num_feature": "75",
                  "num_nodes": "31",
                  "num_deleted": "0"
                },
                "base_weights": [
                  0.005178636,
                  4.9368973,
                  -0.090472944,
                  2.139755,
                  22.117548,
                  9.425983,
                  -0.10650348,
                  0.040632587,
                  5.20342,
                  45.818447,
                  8.930188,
                  18.919983,
                  2.2259848,
                  3.4338853,
                  -0.13670075,
                  0.18936239,
                  -7.030805,
                  -0.4052445,
                  6.327609,
                  92.78665,
                  18.686846,
                  -14.318992,
                  12.864927,
                  1.9236192,
                  34.196346,
                  0.81120324,
                  6.5565553,
                  -1.5535038,
                  5.4662175,
                  1.9677904,
                  -0.17261812
                ],
                "parents": [
                  2147483647,
                  0,
                  0,
                  1,
                  1,
                  2,
                  2,
                  3,
                  3,
                  4,
                  4,
                  5,
                  5,
                  6,
                  6,
                  7,
                  7,
                  8,
                  8,
                  9,
                  9,
                  10,
                  10,
                  11,
                  11,
                  12,
                  12,
                  13,
                  13,
                  14,
                  14
                ],
                "categories_segments": [],
                "categories_sizes": [],
                "right_children": [
                  2,
                  4,
                  6,
                  8,
                  10,
                  12,
                  14,
                  16,
                  18,
                  20,
                  22,
                  24,
                  26,
                  28,
                  30,
                  -1,
                  -1,
                  -1,
                  -1,
                  -1,
                  -1,
                  -1,
                  -1,
                  -1,
                  -1,
                  -1,
                  -1,
                  -1,
                  -1,
                  -1,
                  -1
                ],
                "sum_hessian": [
                  29694.0,
                  564.0,
                  29130.0,
                  486.0,
                  78.0,
                  48.0,
                  29082.0,
                  289.0,
                  197.0,
                  27.0,
                  51.0,
                  20.0,
                  28.0,
                  245.0,
                  28837.0,
                  284.0,
                  5.0,
                  33.0,
                  164.0,
                  9.0,
                  18.0,
                  7.0,
                  44.0,
                  10.0,
                  10.0,
                  22.0,
                  6.0,
                  71.0,
                  174.0,
                  483.0,
                  28354.0
                ],
                "id": 4,
                "left_children": [
                  1,
                  3,
                  5,
                  7,
                  9,
                  11,
                  13,
                  15,
                  17,
                  19,
                  21,
                  23,
                  25,
                  27,
                  29,
                  -1,
                  -1,
                  -1,
                  -1,
                  -1,
                  -1,
                  -1,
                  -1,
                  -1,
                  -1,
                  -1,
                  -1,
                  -1,
                  -1,
                  -1,
                  -1
                ],
                "split_indices": [
                  7,
                  66,
                  54,
                  10,
                  3,
                  3,
                  15,
                  4,
                  3,
                  10,
                  10,
                  3,
                  3,
                  10,
                  17,
                  0,
                  0,
                  0,
                  0,
                  0,
                  0,
                  0,
                  0,
                  0,
                  0,
                  0,
                  0,
                  0,
                  0,
                  0,
                  0
                ],
                "loss_changes": [
                  14008.371,
                  27104.727,
                  4445.05,
                  3131.6895,
                  24282.465,
                  3307.3665,
                  3109.7363,
                  306.3341,
                  1250.9937,
                  33947.145,
                  4941.144,
                  5386.715,
                  172.35883,
                  2501.9556,
                  2180.1404,
                  0.0,
                  0.0,
                  0.0,
                  0.0,
                  0.0,
                  0.0,
                  0.0,
                  0.0,
                  0.0,
                  0.0,
                  0.0,
                  0.0,
                  0.0,
                  0.0,
                  0.0,
                  0.0
                ],
                "categories": [],
                "split_type": [
                  0,
                  0,
                  0,
                  0,
                  0,
                  0,
                  0,
                  0,
                  0,
                  0,
                  0,
                  0,
                  0,
                  0,
                  0,
                  0,
                  0,
                  0,
                  0,
                  0,
                  0,
                  0,
                  0,
                  0,
                  0,
                  0,
                  0,
                  0,
                  0,
                  0,
                  0
                ]
              },
              {
                "default_left": [
                  1,
                  1,
                  1,
                  1,
                  1,
                  1,
                  1,
                  1,
                  1,
                  1,
                  1,
                  1,
                  1,
                  1,
                  1,
                  0,
                  0,
                  0,
                  0,
                  0,
                  0,
                  0,
                  0,
                  0,
                  0,
                  0,
                  0,
                  0,
                  0,
                  0,
                  0
                ],
                "split_conditions": [
                  0.5,
                  0.12282054,
                  0.02878765,
                  4.785,
                  0.5,
                  -0.12065987,
                  0.5,
                  -0.88977885,
                  -0.3109049,
                  0.305,
                  0.114999995,
                  31.5,
                  -0.8780401,
                  87.5,
                  36.500004,
                  0.036377784,
                  -0.09452029,
                  2.476288,
                  0.058156777,
                  -0.35523543,
                  1.2087045,
                  -0.07199946,
                  -0.38422865,
                  3.0646975,
                  1.0633663,
                  2.0817442,
                  -0.024624186,
                  0.78341573,
                  3.7472982,
                  9.980183,
                  1.8728229
                ],
                "categories_nodes": [],
                "tree_param": {
                  "size_leaf_vector": "1",
                  "num_feature": "75",
                  "num_nodes": "31",
                  "num_deleted": "0"
                },
                "base_weights": [
                  0.0052242693,
                  -0.15520346,
                  1.5715296,
                  -0.19850165,
                  1.2932142,
                  0.38618612,
                  4.8717504,
                  -0.28789827,
                  0.41059223,
                  3.301028,
                  -0.5459436,
                  5.8179817,
                  0.05712845,
                  3.52596,
                  15.900079,
                  0.12125927,
                  -0.31506762,
                  8.254293,
                  0.19385591,
                  -1.184118,
                  4.0290146,
                  -0.23999819,
                  -1.2807621,
                  10.215658,
                  3.544554,
                  6.939147,
                  -0.08208062,
                  2.6113856,
                  12.4909935,
                  33.267273,
                  6.2427425
                ],
                "parents": [
                  2147483647,
                  0,
                  0,
                  1,
                  1,
                  2,
                  2,
                  3,
                  3,
                  4,
                  4,
                  5,
                  5,
                  6,
                  6,
                  7,
                  7,
                  8,
                  8,
                  9,
                  9,
                  10,
                  10,
                  11,
                  11,
                  12,
                  12,
                  13,
                  13,
                  14,
                  14
                ],
                "categories_segments": [],
                "categories_sizes": [],
                "right_children": [
                  2,
                  4,
                  6,
                  8,
                  10,
                  12,
                  14,
                  16,
                  18,
                  20,
                  22,
                  24,
                  26,
                  28,
                  30,
                  -1,
                  -1,
                  -1,
                  -1,
                  -1,
                  -1,
                  -1,
                  -1,
                  -1,
                  -1,
                  -1,
                  -1,
                  -1,
                  -1,
                  -1,
                  -1
                ],
                "sum_hessian": [
                  29694.0,
                  26936.0,
                  2758.0,
                  26155.0,
                  781.0,
                  2030.0,
                  728.0,
                  22808.0,
                  3347.0,
                  373.0,
                  408.0,
                  115.0,
                  1915.0,
                  650.0,
                  78.0,
                  1420.0,
                  21388.0,
                  89.0,
                  3258.0,
                  52.0,
                  321.0,
                  289.0,
                  119.0,
                  38.0,
                  77.0,
                  37.0,
                  1878.0,
                  591.0,
                  59.0,
                  27.0,
                  51.0
                ],
                "id": 5,
                "left_children": [
                  1,
                  3,
                  5,
                  7,
                  9,
                  11,
                  13,
                  15,
                  17,
                  19,
                  21,
                  23,
                  25,
                  27,
                  29,
                  -1,
                  -1,
                  -1,
                  -1,
                  -1,
                  -1,
                  -1,
                  -1,
                  -1,
                  -1,
                  -1,
                  -1,
                  -1,
                  -1,
                  -1,
                  -1
                ],
                "split_indices": [
                  61,
                  43,
                  53,
                  10,
                  62,
                  34,
                  66,
                  11,
                  17,
                  10,
                  10,
                  3,
                  11,
                  7,
                  3,
                  0,
                  0,
                  0,
                  0,
                  0,
                  0,
                  0,
                  0,
                  0,
                  0,
                  0,
                  0,
                  0,
                  0,
                  0,
                  0
                ],
                "loss_changes": [
                  7461.968,
                  1689.58,
                  10791.038,
                  1424.337,
                  2889.483,
                  3629.8242,
                  10763.625,
                  253.59537,
                  5690.0503,
                  1225.9281,
                  91.641685,
                  1123.5349,
                  1836.1731,
                  5305.053,
                  13042.267,
                  0.0,
                  0.0,
                  0.0,
                  0.0,
                  0.0,
                  0.0,
                  0.0,
                  0.0,
                  0.0,
                  0.0,
                  0.0,
                  0.0,
                  0.0,
                  0.0,
                  0.0,
                  0.0
                ],
                "categories": [],
                "split_type": [
                  0,
                  0,
                  0,
                  0,
                  0,
                  0,
                  0,
                  0,
                  0,
                  0,
                  0,
                  0,
                  0,
                  0,
                  0,
                  0,
                  0,
                  0,
                  0,
                  0,
                  0,
                  0,
                  0,
                  0,
                  0,
                  0,
                  0,
                  0,
                  0,
                  0,
                  0
                ]
              },
              {
                "default_left": [
                  1,
                  1,
                  1,
                  1,
                  1,
                  1,
                  1,
                  1,
                  1,
                  1,
                  1,
                  1,
                  1,
                  1,
                  1,
                  0,
                  0,
                  0,
                  0,
                  0,
                  0,
                  0,
                  0,
                  0,
                  0,
                  0,
                  0,
                  0,
                  0,
                  0,
                  0
                ],
                "split_conditions": [
                  0.5,
                  0.12282054,
                  0.02878765,
                  6.3749995,
                  0.5,
                  0.020090787,
                  0.5,
                  -0.88977885,
                  -0.3109049,
                  0.255,
                  0.114999995,
                  0.5,
                  0.21802923,
                  -0.10449017,
                  46.5,
                  0.0715293,
                  -0.06718346,
                  2.5735557,
                  0.06020861,
                  -0.33427835,
                  0.8391154,
                  -0.050474104,
                  -0.26992062,
                  -0.13035841,
                  0.46031275,
                  1.1888471,
                  -0.1547136,
                  1.5546665,
                  0.19853008,
                  6.533262,
                  0.8594238
                ],
                "categories_nodes": [],
                "tree_param": {
                  "size_leaf_vector": "1",
                  "num_feature": "75",
                  "num_nodes": "31",
                  "num_deleted": "0"
                },
                "base_weights": [
                  0.0045137987,
                  -0.10853572,
                  1.1082509,
                  -0.13885646,
                  0.9057579,
                  0.27337563,
                  3.4326997,
                  -0.19446336,
                  0.39902848,
                  2.3130014,
                  -0.38327596,
                  -0.23348954,
                  2.172297,
                  2.4751315,
                  11.280094,
                  0.23843099,
                  -0.22394484,
                  8.578519,
                  0.20069537,
                  -1.1142612,
                  2.7970512,
                  -0.168247,
                  -0.89973533,
                  -0.43452802,
                  1.5343758,
                  3.9628234,
                  -0.51571196,
                  5.1822214,
                  0.6617669,
                  21.777538,
                  2.8647459
                ],
                "parents": [
                  2147483647,
                  0,
                  0,
                  1,
                  1,
                  2,
                  2,
                  3,
                  3,
                  4,
                  4,
                  5,
                  5,
                  6,
                  6,
                  7,
                  7,
                  8,
                  8,
                  9,
                  9,
                  10,
                  10,
                  11,
                  11,
                  12,
                  12,
                  13,
                  13,
                  14,
                  14
                ],
                "categories_segments": [],
                "categories_sizes": [],
                "right_children": [
                  2,
                  4,
                  6,
                  8,
                  10,
                  12,
                  14,
                  16,
                  18,
                  20,
                  22,
                  24,
                  26,
                  28,
                  30,
                  -1,
                  -1,
                  -1,
                  -1,
                  -1,
                  -1,
                  -1,
                  -1,
                  -1,
                  -1,
                  -1,
                  -1,
                  -1,
                  -1,
                  -1,
                  -1
                ],
                "sum_hessian": [
                  29694.0,
                  26936.0,
                  2758.0,
                  26155.0,
                  781.0,
                  2030.0,
                  728.0,
                  23705.0,
                  2450.0,
                  373.0,
                  408.0,
                  1603.0,
                  427.0,
                  650.0,
                  78.0,
                  1511.0,
                  22194.0,
                  57.0,
                  2393.0,
                  46.0,
                  327.0,
                  289.0,
                  119.0,
                  1440.0,
                  163.0,
                  256.0,
                  171.0,
                  260.0,
                  390.0,
                  34.0,
                  44.0
                ],
                "id": 6,
                "left_children": [
                  1,
                  3,
                  5,
                  7,
                  9,
                  11,
                  13,
                  15,
                  17,
                  19,
                  21,
                  23,
                  25,
                  27,
                  29,
                  -1,
                  -1,
                  -1,
                  -1,
                  -1,
                  -1,
                  -1,
                  -1,
                  -1,
                  -1,
                  -1,
                  -1,
                  -1,
                  -1,
                  -1,
                  -1
                ],
                "split_indices": [
                  61,
                  43,
                  53,
                  10,
                  62,
                  51,
                  66,
                  11,
                  17,
                  10,
                  10,
                  66,
                  13,
                  12,
                  3,
                  0,
                  0,
                  0,
                  0,
                  0,
                  0,
                  0,
                  0,
                  0,
                  0,
                  0,
                  0,
                  0,
                  0,
                  0,
                  0
                ],
                "loss_changes": [
                  3705.3716,
                  828.5497,
                  5353.245,
                  782.4065,
                  1419.4225,
                  1955.3389,
                  5450.0884,
                  302.5982,
                  3974.447,
                  623.5699,
                  45.269592,
                  570.7427,
                  2061.9866,
                  3192.2913,
                  6916.445,
                  0.0,
                  0.0,
                  0.0,
                  0.0,
                  0.0,
                  0.0,
                  0.0,
                  0.0,
                  0.0,
                  0.0,
                  0.0,
                  0.0,
                  0.0,
                  0.0,
                  0.0,
                  0.0
                ],
                "categories": [],
                "split_type": [
                  0,
                  0,
                  0,
                  0,
                  0,
                  0,
                  0,
                  0,
                  0,
                  0,
                  0,
                  0,
                  0,
                  0,
                  0,
                  0,
                  0,
                  0,
                  0,
                  0,
                  0,
                  0,
                  0,
                  0,
                  0,
                  0,
                  0,
                  0,
                  0,
                  0,
                  0
                ]
              },
              {
                "default_left": [
                  1,
                  1,
                  1,
                  1,
                  1,
                  1,
                  1,
                  1,
                  1,
                  1,
                  1,
                  1,
                  1,
                  1,
                  1,
                  0,
                  0,
                  0,
                  0,
                  0,
                  0,
                  0,
                  0,
                  0,
                  0,
                  0,
                  0,
                  0,
                  0,
                  0,
                  0
                ],
                "split_conditions": [
                  0.5,
                  0.039362818,
                  -0.044495676,
                  -0.3109049,
                  3.8750002,
                  0.5,
                  0.5,
                  6.5649996,
                  0.21779816,
                  0.305,
                  -0.036639538,
                  2525.0,
                  115.500015,
                  -0.027449701,
                  44.5,
                  0.020728849,
                  1.9030579,
                  -0.05224202,
                  -1.847911,
                  -0.05120597,
                  0.094846465,
                  1.6098751,
                  0.22548085,
                  -1.8146299,
                  2.1832185,
                  8.230526,
                  -1.7796187,
                  0.6147383,
                  -0.04890307,
                  2.396893,
                  0.32306093
                ],
                "categories_nodes": [],
                "tree_param": {
                  "size_leaf_vector": "1",
                  "num_feature": "75",
                  "num_nodes": "31",
                  "num_deleted": "0"
                },
                "base_weights": [
                  0.003608648,
                  -0.07587021,
                  0.7795848,
                  -0.15486264,
                  0.1951907,
                  5.884373,
                  0.58339673,
                  0.756315,
                  -0.17649865,
                  -0.033700667,
                  1.4157413,
                  3.0721633,
                  20.807991,
                  0.30735627,
                  3.3379688,
                  0.06909616,
                  6.3435264,
                  -0.17414005,
                  -6.1597033,
                  -0.17068656,
                  0.31615487,
                  5.36625,
                  0.7516028,
                  -6.048766,
                  7.2773943,
                  27.435085,
                  -5.932062,
                  2.0491276,
                  -0.16301022,
                  7.989643,
                  1.0768697
                ],
                "parents": [
                  2147483647,
                  0,
                  0,
                  1,
                  1,
                  2,
                  2,
                  3,
                  3,
                  4,
                  4,
                  5,
                  5,
                  6,
                  6,
                  7,
                  7,
                  8,
                  8,
                  9,
                  9,
                  10,
                  10,
                  11,
                  11,
                  12,
                  12,
                  13,
                  13,
                  14,
                  14
                ],
                "categories_segments": [],
                "categories_sizes": [],
                "right_children": [
                  2,
                  4,
                  6,
                  8,
                  10,
                  12,
                  14,
                  16,
                  18,
                  20,
                  22,
                  24,
                  26,
                  28,
                  30,
                  -1,
                  -1,
                  -1,
                  -1,
                  -1,
                  -1,
                  -1,
                  -1,
                  -1,
                  -1,
                  -1,
                  -1,
                  -1,
                  -1,
                  -1,
                  -1
                ],
                "sum_hessian": [
                  29694.0,
                  26936.0,
                  2758.0,
                  20858.0,
                  6078.0,
                  101.0,
                  2657.0,
                  483.0,
                  20375.0,
                  5119.0,
                  959.0,
                  86.0,
                  15.0,
                  2416.0,
                  241.0,
                  431.0,
                  52.0,
                  20368.0,
                  7.0,
                  3679.0,
                  1440.0,
                  137.0,
                  822.0,
                  27.0,
                  59.0,
                  12.0,
                  3.0,
                  513.0,
                  1903.0,
                  78.0,
                  163.0
                ],
                "id": 7,
                "left_children": [
                  1,
                  3,
                  5,
                  7,
                  9,
                  11,
                  13,
                  15,
                  17,
                  19,
                  21,
                  23,
                  25,
                  27,
                  29,
                  -1,
                  -1,
                  -1,
                  -1,
                  -1,
                  -1,
                  -1,
                  -1,
                  -1,
                  -1,
                  -1,
                  -1,
                  -1,
                  -1,
                  -1,
                  -1
                ],
                "split_indices": [
                  61,
                  30,
                  49,
                  17,
                  10,
                  67,
                  66,
                  10,
                  25,
                  10,
                  33,
                  4,
                  3,
                  60,
                  7,
                  0,
                  0,
                  0,
                  0,
                  0,
                  0,
                  0,
                  0,
                  0,
                  0,
                  0,
                  0,
                  0,
                  0,
                  0,
                  0
                ],
                "loss_changes": [
                  1831.4597,
                  576.7989,
                  2759.7021,
                  411.35278,
                  1698.3591,
                  4216.8457,
                  2020.0464,
                  1857.9459,
                  286.47205,
                  245.43137,
                  2514.7039,
                  3380.958,
                  2998.0881,
                  1980.5117,
                  2536.727,
                  0.0,
                  0.0,
                  0.0,
                  0.0,
                  0.0,
                  0.0,
                  0.0,
                  0.0,
                  0.0,
                  0.0,
                  0.0,
                  0.0,
                  0.0,
                  0.0,
                  0.0,
                  0.0
                ],
                "categories": [],
                "split_type": [
                  0,
                  0,
                  0,
                  0,
                  0,
                  0,
                  0,
                  0,
                  0,
                  0,
                  0,
                  0,
                  0,
                  0,
                  0,
                  0,
                  0,
                  0,
                  0,
                  0,
                  0,
                  0,
                  0,
                  0,
                  0,
                  0,
                  0,
                  0,
                  0,
                  0,
                  0
                ]
              },
              {
                "default_left": [
                  1,
                  1,
                  1,
                  1,
                  1,
                  1,
                  1,
                  1,
                  1,
                  1,
                  1,
                  1,
                  1,
                  1,
                  1,
                  0,
                  0,
                  0,
                  0,
                  0,
                  0,
                  0,
                  0,
                  0,
                  0,
                  0,
                  0,
                  0,
                  0,
                  0,
                  0
                ],
                "split_conditions": [
                  -0.3678984,
                  1.025,
                  0.5,
                  0.43000004,
                  1.5199999,
                  0.215,
                  0.295,
                  252500.0,
                  0.5,
                  109.5,
                  7.975,
                  25.0,
                  0.5,
                  -0.88977885,
                  -0.02645794,
                  -0.2568144,
                  -2.6640086,
                  -2.4183817,
                  0.26928112,
                  1.8925098,
                  8.866798,
                  0.767259,
                  -1.0153265,
                  -1.1765865,
                  -0.03503021,
                  0.23072623,
                  -0.21242645,
                  -0.1010042,
                  -0.021563463,
                  -0.42871502,
                  -0.088099256
                ],
                "categories_nodes": [],
                "tree_param": {
                  "size_leaf_vector": "1",
                  "num_feature": "75",
                  "num_nodes": "31",
                  "num_deleted": "0"
                },
                "base_weights": [
                  0.002930427,
                  1.6000668,
                  -0.016944712,
                  -2.021266,
                  2.5123222,
                  0.1253875,
                  -0.16994864,
                  -1.2455478,
                  -6.350785,
                  17.577816,
                  1.6903987,
                  -0.12883456,
                  0.47879162,
                  -0.08438705,
                  -0.40984833,
                  -0.8560479,
                  -8.880029,
                  -8.061272,
                  0.8976037,
                  6.308366,
                  29.555994,
                  2.55753,
                  -3.3844213,
                  -3.9219549,
                  -0.116767354,
                  0.7690874,
                  -0.70808816,
                  -0.33668065,
                  -0.07187821,
                  -1.42905,
                  -0.2936642
                ],
                "parents": [
                  2147483647,
                  0,
                  0,
                  1,
                  1,
                  2,
                  2,
                  3,
                  3,
                  4,
                  4,
                  5,
                  5,
                  6,
                  6,
                  7,
                  7,
                  8,
                  8,
                  9,
                  9,
                  10,
                  10,
                  11,
                  11,
                  12,
                  12,
                  13,
                  13,
                  14,
                  14
                ],
                "categories_segments": [],
                "categories_sizes": [],
                "right_children": [
                  2,
                  4,
                  6,
                  8,
                  10,
                  12,
                  14,
                  16,
                  18,
                  20,
                  22,
                  24,
                  26,
                  28,
                  30,
                  -1,
                  -1,
                  -1,
                  -1,
                  -1,
                  -1,
                  -1,
                  -1,
                  -1,
                  -1,
                  -1,
                  -1,
                  -1,
                  -1,
                  -1,
                  -1
                ],
                "sum_hessian": [
                  29694.0,
                  364.0,
                  29330.0,
                  73.0,
                  291.0,
                  15195.0,
                  14135.0,
                  63.0,
                  10.0,
                  14.0,
                  277.0,
                  8838.0,
                  6357.0,
                  10420.0,
                  3715.0,
                  61.0,
                  2.0,
                  8.0,
                  2.0,
                  8.0,
                  6.0,
                  237.0,
                  40.0,
                  27.0,
                  8811.0,
                  5108.0,
                  1249.0,
                  491.0,
                  9929.0,
                  379.0,
                  3336.0
                ],
                "id": 8,
                "left_children": [
                  1,
                  3,
                  5,
                  7,
                  9,
                  11,
                  13,
                  15,
                  17,
                  19,
                  21,
                  23,
                  25,
                  27,
                  29,
                  -1,
                  -1,
                  -1,
                  -1,
                  -1,
                  -1,
                  -1,
                  -1,
                  -1,
                  -1,
                  -1,
                  -1,
                  -1,
                  -1,
                  -1,
                  -1
                ],
                "split_indices": [
                  15,
                  10,
                  62,
                  10,
                  10,
                  10,
                  10,
                  4,
                  67,
                  3,
                  10,
                  7,
                  64,
                  11,
                  51,
                  0,
                  0,
                  0,
                  0,
                  0,
                  0,
                  0,
                  0,
                  0,
                  0,
                  0,
                  0,
                  0,
                  0,
                  0,
                  0
                ],
                "loss_changes": [
                  942.64465,
                  1210.8849,
                  638.77386,
                  240.6178,
                  3586.03,
                  1365.3179,
                  290.12375,
                  182.71054,
                  143.6168,
                  1838.362,
                  1232.0044,
                  404.1239,
                  2191.169,
                  32.86345,
                  439.61072,
                  0.0,
                  0.0,
                  0.0,
                  0.0,
                  0.0,
                  0.0,
                  0.0,
                  0.0,
                  0.0,
                  0.0,
                  0.0,
                  0.0,
                  0.0,
                  0.0,
                  0.0,
                  0.0
                ],
                "categories": [],
                "split_type": [
                  0,
                  0,
                  0,
                  0,
                  0,
                  0,
                  0,
                  0,
                  0,
                  0,
                  0,
                  0,
                  0,
                  0,
                  0,
                  0,
                  0,
                  0,
                  0,
                  0,
                  0,
                  0,
                  0,
                  0,
                  0,
                  0,
                  0,
                  0,
                  0,
                  0,
                  0
                ]
              },
              {
                "default_left": [
                  1,
                  1,
                  1,
                  1,
                  1,
                  1,
                  1,
                  1,
                  1,
                  1,
                  1,
                  1,
                  1,
                  1,
                  1,
                  0,
                  0,
                  0,
                  0,
                  0,
                  0,
                  0,
                  0,
                  0,
                  0,
                  0,
                  0,
                  0,
                  0,
                  0,
                  0
                ],
                "split_conditions": [
                  17.0,
                  57.5,
                  -0.8780401,
                  23.5,
                  6.755001,
                  0.5,
                  -0.11538198,
                  22.5,
                  0.5,
                  250025.0,
                  250025.0,
                  4.29,
                  21.5,
                  31.5,
                  96.5,
                  -0.14198433,
                  -7.3635707,
                  0.7278667,
                  7.211701,
                  -0.34101257,
                  -2.4743364,
                  -0.13561861,
                  1.833356,
                  -0.006016754,
                  0.44310996,
                  -0.2945515,
                  1.629203,
                  2.8503222,
                  -0.39846256,
                  -0.037564438,
                  0.06324651
                ],
                "categories_nodes": [],
                "tree_param": {
                  "size_leaf_vector": "1",
                  "num_feature": "75",
                  "num_nodes": "31",
                  "num_deleted": "0"
                },
                "base_weights": [
                  0.0021728117,
                  0.9363443,
                  -0.015945656,
                  2.9032497,
                  -1.2387755,
                  0.3813055,
                  -0.06036707,
                  -1.6909702,
                  5.9412885,
                  -1.818875,
                  2.2289615,
                  0.24036928,
                  4.4950366,
                  3.0648005,
                  -0.06621982,
                  -0.47328106,
                  -24.545235,
                  2.4262223,
                  24.039001,
                  -1.1367085,
                  -8.247787,
                  -0.45206204,
                  6.1111865,
                  -0.020055845,
                  1.4770331,
                  -0.9818382,
                  5.4306765,
                  9.501074,
                  -1.3282084,
                  -0.12521479,
                  0.2108217
                ],
                "parents": [
                  2147483647,
                  0,
                  0,
                  1,
                  1,
                  2,
                  2,
                  3,
                  3,
                  4,
                  4,
                  5,
                  5,
                  6,
                  6,
                  7,
                  7,
                  8,
                  8,
                  9,
                  9,
                  10,
                  10,
                  11,
                  11,
                  12,
                  12,
                  13,
                  13,
                  14,
                  14
                ],
                "categories_segments": [],
                "categories_sizes": [],
                "right_children": [
                  2,
                  4,
                  6,
                  8,
                  10,
                  12,
                  14,
                  16,
                  18,
                  20,
                  22,
                  24,
                  26,
                  28,
                  30,
                  -1,
                  -1,
                  -1,
                  -1,
                  -1,
                  -1,
                  -1,
                  -1,
                  -1,
                  -1,
                  -1,
                  -1,
                  -1,
                  -1,
                  -1,
                  -1
                ],
                "sum_hessian": [
                  29694.0,
                  564.0,
                  29130.0,
                  296.0,
                  268.0,
                  2929.0,
                  26201.0,
                  118.0,
                  178.0,
                  230.0,
                  38.0,
                  2833.0,
                  96.0,
                  48.0,
                  26153.0,
                  113.0,
                  5.0,
                  150.0,
                  28.0,
                  209.0,
                  21.0,
                  23.0,
                  15.0,
                  2341.0,
                  492.0,
                  14.0,
                  82.0,
                  19.0,
                  29.0,
                  21562.0,
                  4591.0
                ],
                "id": 9,
                "left_children": [
                  1,
                  3,
                  5,
                  7,
                  9,
                  11,
                  13,
                  15,
                  17,
                  19,
                  21,
                  23,
                  25,
                  27,
                  29,
                  -1,
                  -1,
                  -1,
                  -1,
                  -1,
                  -1,
                  -1,
                  -1,
                  -1,
                  -1,
                  -1,
                  -1,
                  -1,
                  -1,
                  -1,
                  -1
                ],
                "split_indices": [
                  7,
                  3,
                  11,
                  3,
                  10,
                  61,
                  54,
                  3,
                  66,
                  4,
                  4,
                  10,
                  3,
                  3,
                  3,
                  0,
                  0,
                  0,
                  0,
                  0,
                  0,
                  0,
                  0,
                  0,
                  0,
                  0,
                  0,
                  0,
                  0,
                  0,
                  0
                ],
                "loss_changes": [
                  502.62527,
                  2420.8105,
                  514.082,
                  4155.3994,
                  545.1832,
                  1697.6565,
                  479.4592,
                  3300.0806,
                  11328.7,
                  1003.6955,
                  408.68774,
                  912.743,
                  502.397,
                  1398.0751,
                  427.48883,
                  0.0,
                  0.0,
                  0.0,
                  0.0,
                  0.0,
                  0.0,
                  0.0,
                  0.0,
                  0.0,
                  0.0,
                  0.0,
                  0.0,
                  0.0,
                  0.0,
                  0.0,
                  0.0
                ],
                "categories": [],
                "split_type": [
                  0,
                  0,
                  0,
                  0,
                  0,
                  0,
                  0,
                  0,
                  0,
                  0,
                  0,
                  0,
                  0,
                  0,
                  0,
                  0,
                  0,
                  0,
                  0,
                  0,
                  0,
                  0,
                  0,
                  0,
                  0,
                  0,
                  0,
                  0,
                  0,
                  0,
                  0
                ]
              },
              {
                "default_left": [
                  1,
                  1,
                  1,
                  1,
                  1,
                  1,
                  1,
                  1,
                  1,
                  1,
                  1,
                  1,
                  1,
                  1,
                  1,
                  0,
                  0,
                  0,
                  0,
                  0,
                  0,
                  0,
                  0,
                  0,
                  0,
                  0,
                  0,
                  0,
                  0,
                  0,
                  0
                ],
                "split_conditions": [
                  -0.3678984,
                  17.5,
                  0.111746974,
                  6.61,
                  42.5,
                  0.034300763,
                  0.305,
                  5.705,
                  252500.0,
                  252500.0,
                  3.6349998,
                  -0.25064296,
                  -0.15711862,
                  275.0,
                  0.5,
                  -0.596682,
                  0.83385605,
                  -0.71086895,
                  -3.1218479,
                  0.47109598,
                  3.1584527,
                  0.5838136,
                  -0.2505157,
                  0.07102228,
                  -0.03387886,
                  1.1251526,
                  0.039063793,
                  -0.929057,
                  -0.024588097,
                  0.68828714,
                  -0.37869963
                ],
                "categories_nodes": [],
                "tree_param": {
                  "size_leaf_vector": "1",
                  "num_feature": "75",
                  "num_nodes": "31",
                  "num_deleted": "0"
                },
                "base_weights": [
                  0.0016410368,
                  1.1374507,
                  -0.0124932295,
                  -2.298198,
                  1.7675301,
                  -0.032938413,
                  0.536047,
                  -0.48267248,
                  -7.3494916,
                  5.2950683,
                  0.38338947,
                  -0.08558509,
                  0.1671013,
                  -0.2970598,
                  1.3856828,
                  -1.9889399,
                  2.77952,
                  -2.369563,
                  -10.406159,
                  1.5703199,
                  10.528175,
                  1.9460453,
                  -0.83505225,
                  0.23674092,
                  -0.11292953,
                  3.7505085,
                  0.13021263,
                  -3.0968566,
                  -0.08196032,
                  2.2942903,
                  -1.2623321
                ],
                "parents": [
                  2147483647,
                  0,
                  0,
                  1,
                  1,
                  2,
                  2,
                  3,
                  3,
                  4,
                  4,
                  5,
                  5,
                  6,
                  6,
                  7,
                  7,
                  8,
                  8,
                  9,
                  9,
                  10,
                  10,
                  11,
                  11,
                  12,
                  12,
                  13,
                  13,
                  14,
                  14
                ],
                "categories_segments": [],
                "categories_sizes": [],
                "right_children": [
                  2,
                  4,
                  6,
                  8,
                  10,
                  12,
                  14,
                  16,
                  18,
                  20,
                  22,
                  24,
                  26,
                  28,
                  30,
                  -1,
                  -1,
                  -1,
                  -1,
                  -1,
                  -1,
                  -1,
                  -1,
                  -1,
                  -1,
                  -1,
                  -1,
                  -1,
                  -1,
                  -1,
                  -1
                ],
                "sum_hessian": [
                  29694.0,
                  364.0,
                  29330.0,
                  56.0,
                  308.0,
                  28277.0,
                  1053.0,
                  42.0,
                  14.0,
                  86.0,
                  222.0,
                  22386.0,
                  5891.0,
                  532.0,
                  521.0,
                  29.0,
                  13.0,
                  6.0,
                  8.0,
                  51.0,
                  35.0,
                  97.0,
                  125.0,
                  1750.0,
                  20636.0,
                  59.0,
                  5832.0,
                  37.0,
                  495.0,
                  388.0,
                  133.0
                ],
                "id": 10,
                "left_children": [
                  1,
                  3,
                  5,
                  7,
                  9,
                  11,
                  13,
                  15,
                  17,
                  19,
                  21,
                  23,
                  25,
                  27,
                  29,
                  -1,
                  -1,
                  -1,
                  -1,
                  -1,
                  -1,
                  -1,
                  -1,
                  -1,
                  -1,
                  -1,
                  -1,
                  -1,
                  -1,
                  -1,
                  -1
                ],
                "split_indices": [
                  15,
                  3,
                  34,
                  10,
                  3,
                  40,
                  10,
                  10,
                  4,
                  4,
                  10,
                  14,
                  20,
                  4,
                  64,
                  0,
                  0,
                  0,
                  0,
                  0,
                  0,
                  0,
                  0,
                  0,
                  0,
                  0,
                  0,
                  0,
                  0,
                  0,
                  0
                ],
                "loss_changes": [
                  476.7329,
                  794.18915,
                  328.965,
                  519.18555,
                  1506.6962,
                  297.82193,
                  746.47217,
                  216.81888,
                  203.67174,
                  1679.2721,
                  426.2182,
                  197.34183,
                  778.3579,
                  320.73734,
                  1258.8313,
                  0.0,
                  0.0,
                  0.0,
                  0.0,
                  0.0,
                  0.0,
                  0.0,
                  0.0,
                  0.0,
                  0.0,
                  0.0,
                  0.0,
                  0.0,
                  0.0,
                  0.0,
                  0.0
                ],
                "categories": [],
                "split_type": [
                  0,
                  0,
                  0,
                  0,
                  0,
                  0,
                  0,
                  0,
                  0,
                  0,
                  0,
                  0,
                  0,
                  0,
                  0,
                  0,
                  0,
                  0,
                  0,
                  0,
                  0,
                  0,
                  0,
                  0,
                  0,
                  0,
                  0,
                  0,
                  0,
                  0,
                  0
                ]
              },
              {
                "default_left": [
                  1,
                  1,
                  1,
                  1,
                  1,
                  1,
                  1,
                  1,
                  1,
                  1,
                  1,
                  1,
                  1,
                  1,
                  1,
                  0,
                  0,
                  0,
                  0,
                  0,
                  0,
                  0,
                  0,
                  0,
                  0,
                  0,
                  0,
                  0,
                  0,
                  0,
                  0
                ],
                "split_conditions": [
                  -0.2984167,
                  1.0550001,
                  -0.8780401,
                  -0.009903406,
                  1.3650001,
                  0.53499997,
                  -0.051724833,
                  0.5,
                  0.43000004,
                  109.5,
                  275.0,
                  0.5,
                  84.5,
                  0.5,
                  0.215,
                  -0.020643812,
                  -0.3802098,
                  -0.6307173,
                  -2.687629,
                  0.9063207,
                  9.601341,
                  -1.3723028,
                  0.25049713,
                  -0.044370744,
                  -0.50388634,
                  0.06180702,
                  0.60303384,
                  0.16087294,
                  -0.04587432,
                  -0.0034287358,
                  -0.09324199
                ],
                "categories_nodes": [],
                "tree_param": {
                  "size_leaf_vector": "1",
                  "num_feature": "75",
                  "num_nodes": "31",
                  "num_deleted": "0"
                },
                "base_weights": [
                  0.0011798568,
                  0.42016765,
                  -0.023280304,
                  -0.4485247,
                  1.2379286,
                  0.25350037,
                  -0.055551548,
                  -0.13172834,
                  -3.6771002,
                  10.838428,
                  0.5549554,
                  -0.1606797,
                  0.73109716,
                  0.18298452,
                  -0.097899966,
                  -0.068812706,
                  -1.2673659,
                  -2.1023908,
                  -8.958763,
                  3.0210688,
                  32.00447,
                  -4.5743423,
                  0.83499044,
                  -0.14790247,
                  -1.679621,
                  0.2060234,
                  2.0101128,
                  0.5362431,
                  -0.15291439,
                  -0.011429119,
                  -0.31080663
                ],
                "parents": [
                  2147483647,
                  0,
                  0,
                  1,
                  1,
                  2,
                  2,
                  3,
                  3,
                  4,
                  4,
                  5,
                  5,
                  6,
                  6,
                  7,
                  7,
                  8,
                  8,
                  9,
                  9,
                  10,
                  10,
                  11,
                  11,
                  12,
                  12,
                  13,
                  13,
                  14,
                  14
                ],
                "categories_segments": [],
                "categories_sizes": [],
                "right_children": [
                  2,
                  4,
                  6,
                  8,
                  10,
                  12,
                  14,
                  16,
                  18,
                  20,
                  22,
                  24,
                  26,
                  28,
                  30,
                  -1,
                  -1,
                  -1,
                  -1,
                  -1,
                  -1,
                  -1,
                  -1,
                  -1,
                  -1,
                  -1,
                  -1,
                  -1,
                  -1,
                  -1,
                  -1
                ],
                "sum_hessian": [
                  29694.0,
                  1637.0,
                  28057.0,
                  794.0,
                  843.0,
                  2929.0,
                  25128.0,
                  724.0,
                  70.0,
                  55.0,
                  788.0,
                  1569.0,
                  1360.0,
                  3788.0,
                  21340.0,
                  687.0,
                  37.0,
                  55.0,
                  15.0,
                  41.0,
                  14.0,
                  40.0,
                  748.0,
                  1557.0,
                  12.0,
                  965.0,
                  395.0,
                  1846.0,
                  1942.0,
                  15177.0,
                  6163.0
                ],
                "id": 11,
                "left_children": [
                  1,
                  3,
                  5,
                  7,
                  9,
                  11,
                  13,
                  15,
                  17,
                  19,
                  21,
                  23,
                  25,
                  27,
                  29,
                  -1,
                  -1,
                  -1,
                  -1,
                  -1,
                  -1,
                  -1,
                  -1,
                  -1,
                  -1,
                  -1,
                  -1,
                  -1,
                  -1,
                  -1,
                  -1
                ],
                "split_indices": [
                  15,
                  10,
                  11,
                  21,
                  10,
                  10,
                  41,
                  61,
                  10,
                  3,
                  4,
                  61,
                  7,
                  62,
                  10,
                  0,
                  0,
                  0,
                  0,
                  0,
                  0,
                  0,
                  0,
                  0,
                  0,
                  0,
                  0,
                  0,
                  0,
                  0,
                  0
                ],
                "loss_changes": [
                  304.33926,
                  1164.1622,
                  250.62973,
                  812.6424,
                  5527.995,
                  579.7039,
                  253.86163,
                  51.71357,
                  571.67816,
                  9169.216,
                  1137.1257,
                  30.22191,
                  913.60284,
                  449.68155,
                  392.88895,
                  0.0,
                  0.0,
                  0.0,
                  0.0,
                  0.0,
                  0.0,
                  0.0,
                  0.0,
                  0.0,
                  0.0,
                  0.0,
                  0.0,
                  0.0,
                  0.0,
